{"learner":{"attributes":{"scikit_learn":"{\"_estimator_type\": \"regressor\"}"},"feature_names":["0","1","2","3","4","5","6","7","8","9","10","11","12","13","14","15","16","17","18","19","20","21","22","23","24","25","26","27","28","29","30","31","32","33","34","35","36","37","38","39","40","41","42","43","44","45","46","47","48","49","50","51","52","53","54","55","56","57","58","59","60","61","62","63","64","65","66","67","68","69","70","71","72","73","74","75","76","77","78","79","80","81","82","83","84","85","86","87","88","89","90","91","92","93","94","95","96","97","98","99","100","101","102","103","104","105","106","107","108","109","110","111","112","113","114","115","116","117","118","119","120","121","122","123","124","125","126","127","128","129","130","131","132","133","134","135","136","137","138","139","140","141","142","143"],"feature_types":["float","float","float","float","float","float","float","float","float","float","float","float","float","float","float","float","float","float","float","float","float","float","float","float","float","float","float","float","float","float","float","float","float","float","float","float","float","float","float","float","float","float","float","float","float","float","float","float","float","float","float","float","float","float","float","float","float","float","float","float","float","float","float","float","float","float","float","float","float","float","float","float","float","float","float","float","float","float","float","float","float","float","float","float","float","float","float","float","float","float","float","float","float","float","float","float","float","float","float","float","float","float","float","float","float","float","float","float","float","float","float","float","float","float","float","float","float","float","float","float","float","float","float","float","float","float","float","float","float","float","float","float","float","float","float","float","float","float","float","float","float","float","float","float"],"gradient_booster":{"model":{"gbtree_model_param":{"num_parallel_tree":"1","num_trees":"100"},"iteration_indptr":[0,1,2,3,4,5,6,7,8,9,10,11,12,13,14,15,16,17,18,19,20,21,22,23,24,25,26,27,28,29,30,31,32,33,34,35,36,37,38,39,40,41,42,43,44,45,46,47,48,49,50,51,52,53,54,55,56,57,58,59,60,61,62,63,64,65,66,67,68,69,70,71,72,73,74,75,76,77,78,79,80,81,82,83,84,85,86,87,88,89,90,91,92,93,94,95,96,97,98,99,100],"tree_info":[0,0,0,0,0,0,0,0,0,0,0,0,0,0,0,0,0,0,0,0,0,0,0,0,0,0,0,0,0,0,0,0,0,0,0,0,0,0,0,0,0,0,0,0,0,0,0,0,0,0,0,0,0,0,0,0,0,0,0,0,0,0,0,0,0,0,0,0,0,0,0,0,0,0,0,0,0,0,0,0,0,0,0,0,0,0,0,0,0,0,0,0,0,0,0,0,0,0,0,0],"trees":[{"base_weights":[2.8920884E-4,3.5807726E-1,-5.8167404E-1,4.8335847E-1,-1.4875405E-1,-2.1472648E-1,-7.023342E-1,6.713571E-1,2.3157886E-1,2.7118076E-2,-3.617968E-1,-3.5053825E-1,1.2849835E-1,-7.6084906E-1,1.4242484E-1,6.841406E-1,-4.394233E0,4.3429914E-1,-7.806525E-2,-1.6224478E0,7.0970245E-2,-2.8290746E-1,-5.2739966E-1,-8.856482E-1,-2.8812808E-1,4.8169622E-1,-6.8842076E-2,-5.4571074E-1,-1.0056826E0,3.7227452E-1,-8.758315E-2,6.967328E-1,-1.631826E0,9.872966E-1,-9.142642E0,3.2890472E-1,7.846077E-1,2.3024028E-2,-1.2364717E0,-8.792622E-1,-3.6726148E0,1.2571317E-1,-9.192447E-1,-2.707653E-1,-1.951812E0,-5.079299E-1,-1.0854284E0,-1.0880865E0,-3.7209073E-1,-1.808493E-1,-5.8889675E-1,9.409559E-1,3.1360802E-1,-5.356709E-2,-1.4910237E0,-6.242478E-1,-1.0777028E-1,-1.1008204E0,-7.007828E-1,3.9746684E-1,-7.645785E-1,5.1314395E-2,-3.6196274E-1,7.986857E-1,4.9130887E-1,3.1202018E-2,-2.8095577E0,1.1601204E0,8.043067E-1,-9.390735E0,-1.0387931E0,2.9005727E-1,9.069003E-1,7.3223376E-1,1.1332203E0,-5.569108E-2,9.4182074E-1,-9.918583E-1,-8.261353E0,-2.6863392E-2,-1.5222999E0,-4.600427E-1,-3.741618E0,3.4601715E-1,-1.573125E-2,2.7936792E-1,-1.6477427E0,-2.4693891E-1,-8.507645E-1,-2.6484933E-1,-3.9415627E0,-3.8715705E-1,-5.866772E-1,-3.9888427E-1,-2.3355534E0,-1.1329931E0,3.2368887E-2,-2.6595956E-1,-3.5772517E0,3.5197055E-1,-2.3799303E-1,-4.8444027E-1,-9.1463155E-1,1.0156463E0,6.407935E-1,3.4120244E-1,-1.987341E0,-1.4181653E-1,2.0665056E-1,-1.8143493E0,-6.6250145E-1,-4.7460064E-1,-7.499977E-1,-1.6368179E-2,-3.3426207E-1,-9.9783075E-1,-1.2804049E0,-5.12498E-1,-8.3335584E-1,6.9816476E-1,3.0922747E-1,-3.2656616E-1,-1.312094E0,1.053374E-1,-6.494189E-1,-2.2664027E-1,-6.459251E-1,7.288063E-1,1.0165164E0,5.163364E-1,-2.2701848E0,8.167432E-1,-3.5255537E0,-3.1180048E0,4.9339807E-1,1.2060866E0,1.3070235E-1,8.3145726E-1,1.0110952E-1,-1.3701403E0,-1.3701403E0,5.2219176E-1,1.9509779E-1,9.696969E-1,1.5039115E-1,8.2665193E-1,4.8933673E-1,1.1657792E0,7.823425E-1,1.6055138E-1,-3.222976E-1,1.0040166E0,1.3781317E-1,-2.3138154E-1,-2.0685997E0,-9.390735E0,9.228849E-2,1.896949E-1,-4.2520738E-1,-2.2420628E0,-1.647724E-1,-5.70548E-1,-3.7192066E0,3.5325128E-1,-6.165804E-1,-1.8317206E-3,-1.7328353E0,6.632443E-1,1.22085266E-1,-1.1381457E-2,-1.7354971E0,-3.188536E-1,-3.4288574E-2,-1.0510767E-1,-1.6194152E0,-4.783627E-2,-1.1101487E-1,-4.102669E0,-3.7719772E0,-3.4128127E-1,-3.789056E-1,-5.372951E-1,-7.9390997E-1,-3.4115943E-1,-1.4318675E-1,-2.963371E0,-3.343841E-1,-2.2095287E0,-1.0903435E0,2.1865042E-1,-3.4950826E-1,4.2812857E-1,-4.0532914E-1,-9.228042E-2,-9.5158607E-1,3.9506975E-1,-9.912876E-1,4.3863963E-2,-3.1037655E-1,-6.0731924E-1,-3.5479054E-1,-6.280516E-1,-1.0492057E0,5.964135E-1,1.0311985E0,5.8396715E-1,1.4837354E-1,2.7301326E-1,8.596567E-1,-5.111964E-1,-6.967785E-1,2.6990796E-2,-2.9157272E-1,1.3118012E-1,7.243512E-1,-2.2270908E0,-1.00482345E-1,-1.9708803E-2,-1.7361365E-1,-3.6464897E-1,-7.106574E-1,-1.9428266E0,-7.331202E-1,9.6211545E-2,-1.5765704E-1,-2.8202003E-1,-5.106667E-1,-9.200252E-1,-1.1885086E0,-1.3419065E0,-1.0436225E0,-3.6435163E-1,-6.965822E-1,-6.16358E-1,-9.703697E-1,8.3815604E-1,-5.950882E-1,2.3055092E-1,5.211913E-1,-8.363419E-2,-1.0081402E-1,-1.1178231E0,-2.623009E-1,1.3181406E-1,-1.1153759E0,-7.1470016E-1,6.002492E-2,-1.9484079E-1,-2.3288193E-1,-1.6949626E0,-5.632954E-1,8.1679726E-1,5.2495325E-1,1.0743458E0,9.478082E-1,5.301166E-1,-1.5635412E0,6.131424E-1,-2.6414285E0,-1.3301249E-2,9.087609E-1,-2.6293902E0,-4.5271482E0,8.576183E-2,-3.2995136E0,1.3029718E-1,3.700323E-2,1.6674814E-1,1.8603477E-1,1.2984821E-1,8.042953E-1,-9.031956E-1,5.4723793E-1,1.1933645E-1,4.5356232E-1,6.0560566E-1,1.0802199E0,-1.1933292E0,4.0838546E-1,8.964988E-1,7.196304E-1,2.3934683E-1,5.5235356E-1,1.2631382E0,1.1169022E0,7.242339E-1,1.4933112E-1,7.3856555E-2,6.003189E-1,-2.9871368E-1,-2.8280253E0,1.0315748E0,4.4355586E-1,2.632084E-1,-1.8946028E-1,-1.0794819E-2,-2.0701787E0,-6.758833E0,-4.048091E-1,-1.3701403E0,-1.3701403E0,8.264169E-1,-4.7967955E-1,-2.5808718E0,-1.769414E-1,-9.849604E-2,-6.425788E-2,-5.4001397E-1,-5.46477E-1,4.7190186E-1,1.4972283E-1,3.428811E-2,-4.6034703E-1,9.882615E-2,-3.6034682E0,8.585874E-1,4.0661705E-1,-5.668322E-1,1.9045113E-1,5.9088066E-2,-3.400884E-1,-4.265032E-1,-1.8475685E0,-3.4788927E-1,1.6151103E-1,2.8213698E-1,-9.099519E-2,1.69747E-1,-2.2242369E-1,-1.4817445E0,-5.669349E-1,2.8967198E-2,-2.6522428E-1,-6.058408E-1,-5.8772236E-1,-5.212111E-1,-5.8271474E-1,-2.4054931E-1,-4.9916258E-1,-5.305611E-1,-2.508573E-1,-7.7423143E-1,-2.639387E-1,-2.7419218E-1,-1.1230911E-1,-8.234845E-1,-2.4646423E0,-1.7712718E-3,-9.580429E-2,-1.5021448E0,-5.1847625E-1,-9.295322E-1,-1.279871E0,4.9359968E-1,-7.750553E-2,-6.539935E-2,-3.6589548E-2,3.050465E-1,1.6542518E-1,6.176926E-1,-4.8183718E-1,4.1312924E-1,-2.532815E-1,-1.1296849E-1,-1.8696067E0,-8.2905805E-1,8.841898E-2,-1.5360431E-1,-4.6963972E-1,-5.9188277E-1,-1.4211667E0,-2.0210543E-1,-4.8509008E-1,-6.6331744E-1,1.2390063E-1,-1.0730131E0,-1.834806E-1,1.3173737E-1,6.316884E-2,9.834304E-1,1.1180496E0,6.943969E-1,4.6182513E-1,-6.4397436E-1,3.0985206E-1,-1.2289515E-1,9.2998564E-1,-5.3735856E-2,-9.311813E-2,-7.8075665E-1,8.608292E-2,-3.97058E-1,-1.3857599E-1,-5.793542E-1,1.735426E-1,8.0013543E-1,3.9516348E-1,-5.247305E-1,-1.7291516E0,-1.7744696E0,-3.440287E-1,-5.3199416E-1,-8.4070677E-1,-9.6187764E-1,-5.989241E0,-5.9359175E-1,-8.33317E-1,1.4596695E-1,-9.1518044E-2,-2.1792614E-1,6.311129E-2,-2.7109978E-1,-9.861402E-1,-4.5996833E-1,-9.515226E-1,-7.914767E-1,-1.0343906E0,-1.0908003E0,-1.4268901E0,-1.2144107E0,-1.4452051E0,-8.204827E-1,-1.2868968E0,-4.007333E-1,3.3239162E-1,-7.1869904E-1,-1.1522622E-1,-6.636974E-1,-6.66005E-2,-1.005678E0,-4.304596E-1,8.559713E-1,-1.2637449E-2,-1.9983816E0,7.643524E-1,9.0078495E-2,3.711987E-1,6.68604E-1,3.772068E-1,1.0726219E-2,-4.277416E-2,-1.8598564E-1,-1.4436486E-1,3.4020618E-1,-3.2585373E-3,-1.0207293E0,-1.2205386E0,-7.9549545E-1,-1.3900149E-2,-2.9787902E-2,-3.29294E-1,-6.915567E-2,-4.7888955E-1,-4.7360057E-1,-1.3767349E0,-3.4689054E-2,1.21055305E-1,8.809786E-2,-4.890879E-2,1.673061E-1,1.506229E-1,1.343166E-1,1.7947589E-1,6.2279765E-2,1.1182625E-1,-1.6356574E-1,-6.996966E-1,1.09682515E-1,3.384648E-2,-4.5704317E-1,-8.605694E-2,1.8941046E-1,1.16286695E-1,-5.3107977E-1,-2.1981177E-1,-6.1645997E-1,-6.996966E-1,-5.074739E-1,1.310828E-1,1.1189065E-1,1.3099639E-1,-2.7138866E-2,-7.496564E-1,8.7618195E-2,-1.5357005E-2,2.68179E-2,-1.1301999E-2,6.925299E-2,-6.465399E-1,6.842923E-2,1.2510294E-1,1.6158493E-1,5.8254354E-2,8.002312E-2,-4.2824477E-1,1.3561569E-1,-1.0198073E-1,1.0551406E-1,1.3327189E-1,1.0812742E-1,5.407864E-2,4.9809966E-2,-1.470663E-2,9.445428E-2,6.740074E-2,1.8133976E-1,2.0571381E-1,1.3387136E-1,1.6449301E-1,1.00273475E-1,1.3758703E-1,4.1873707E-3,5.7226267E-2,1.09252736E-1,6.146418E-2,-5.114598E-2,4.5775354E-2,-8.70167E-3,-5.6936246E-1,1.5305607E-1,2.6666306E-2,1.0574081E-1,4.3831125E-2,3.725767E-3,5.7010304E-2,1.235237E-2,-6.337565E-1,3.2710984E-2,-1.094892E0,-9.692585E-1,-1.2179329E0,-7.665171E-3,-9.1270566E-2,1.6375007E-1,-4.8302365E-3,-1.2780595E-1,-1.5058792E-2,-4.8644415E-1,-3.457899E-1,1.2086113E-1,-1.1607943E-1,-2.6306046E-2,7.527755E-2,7.31004E-2,-1.3891682E-1,2.939499E-2,-2.3093732E-1,2.4644542E-2,-1.0368243E-2,-2.4136614E-2,-6.8264306E-1,6.394642E-2,-1.8029878E-2,-5.1672465E-1,-5.697975E-1,1.11701325E-1,1.94352E-1,6.778944E-2,2.463005E-2,-2.1236112E-2,-1.441694E-1,5.9978794E-2,1.0366285E-2,-9.8152936E-2,4.305357E-3,6.521144E-2,-1.7078803E-1,-2.8184313E-1,-4.285941E-2,-4.8452884E-2,-1.400645E-1,1.6303075E-2,1.1272549E-1,3.702873E-2,1.5587051E-1,-9.859437E-3,-1.05418295E-1,5.8733374E-2,1.0209509E-2,-3.0073915E-3,-4.3587036E-2,-1.5058754E-1,-2.73739E-1,-2.6633114E-2,-4.94207E-2,-3.1438872E-2,-1.4461118E-1,-7.0292786E-2,-1.773056E-1,-6.319488E-2,-8.7755375E-2,-1.08878955E-1,-1.8323293E-1,-5.8400493E-2,-4.8880186E-3,-2.5424823E-1,-5.059213E-1,-2.8527227E-1,-1.3750991E-1,-1.3124643E-1,-3.0451584E-1,-1.9682418E-1,-1.07637145E-1,4.509311E-2,1.072272E-1,3.089244E-2,1.4798048E-1,-5.7829414E-2,1.3396136E-1,-8.6464055E-2,5.360972E-2,7.077655E-2,-4.9370904E-3,-3.258057E-2,-4.408927E-3,-4.0789345E-1,-5.3225942E-2,-5.1361468E-2,-1.658367E-1,5.3850323E-2,2.3953242E-3,-4.426678E-3,-4.093826E-2,-3.0744305E-2,-8.126365E-2,-7.40938E-2,-9.904227E-2,-1.3089158E-1,-4.7496828E-1,-3.5961922E-2,5.8246642E-2,-7.8275025E-2,1.4695138E-3,-7.472563E-2,-1.1871825E-1,-1.3930398E-1,-1.8931064E-1,-8.28184E-2,4.048709E-2,1.4967878E-1,1.2608674E-1,1.6653152E-1,1.1303614E-1,1.056366E-1,7.695612E-2,8.451619E-3,7.668664E-2,-1.6076726E-1,3.6987938E-2,4.9203884E-2,-7.553414E-2,1.799262E-1,1.1875121E-1,3.062683E-2,-1.3778436E-1,4.0718067E-2,-2.2848595E-2,-6.506824E-2,-1.8383022E-2,-1.655058E-2,-1.5944093E-1,-2.1612233E-1,-1.873349E-2,5.397497E-3,6.180343E-2,7.499755E-2,1.409356E-1,3.2114346E-2,6.926541E-2,-1.7551187E-1,-3.4442183E-1,-1.4967975E-2,-5.909214E-1,-2.3884093E-2,-7.21041E-2,-1.0385716E-1,-5.7617005E-2,-1.43903E-1,-1.0702416E-1,-1.1843649E-1,-3.2083634E-1,-6.4972466E-1,-1.1324577E0,-7.438956E-2,-1.14961445E-1,-1.0576869E-1,-1.3664058E-1,2.4086062E-2,-5.5046752E-2,-3.6609985E-2,5.2975374E-3,-2.8162867E-2,-1.1819402E-1,4.1087918E-2,-1.9013276E-2,-1.2989002E-2,-4.565605E-2,-2.8933033E-1,-3.199729E-2,-5.1532306E-2,-1.05251774E-1,-5.1768105E-2,-1.6955827E-1,-1.232815E-1,-4.7244605E-2,-1.4824319E-1,-2.8014573E-1,-1.6150688E-1,-3.5478074E-2,-2.1276908E-1,-6.608829E-2,-1.6726339E-1,-2.0053002E-1,-2.8149384E-1,-2.0692848E-1,-1.00790545E-1,-1.6620365E-1,-1.6465124E-1,-2.1808083E-1,-6.589164E-2,2.1720286E-2,-2.5015803E-2,9.6739896E-2,-1.1118644E-1,-6.1064385E-2,-7.0856676E-2,7.709452E-5,-9.3249E-2,-2.0432349E-1,-2.1130589E-1,3.0415345E-3,-1.4923151E-1,-5.7675023E-2,-7.701503E-2,2.3921441E-2,1.273224E-1,1.0136026E-3,-2.5129694E-2,-4.381133E-1,1.397379E-1,6.449449E-2,6.1107525E-3,8.4439516E-2,-5.40763E-3,6.14173E-2,1.2090647E-1,6.508268E-2,7.040656E-2,2.319625E-2,-1.3830058E-1,5.6127593E-2,-6.8163252E-3,9.37862E-2,-1.4256175E-1,-1.5847713E-1,-1.8236154E-1,-1.7379999E-1,-8.4038466E-2,-1.3314658E-1,-1.2347111E-3,-7.642798E-2,-4.428564E-2,-1.5581684E-1,-5.713363E-2,-1.9396585E-1,-2.8811845E-1,-1.5495028E-1],"categories":[],"categories_nodes":[],"categories_segments":[],"categories_sizes":[],"default_left":[0,0,0,0,0,0,0,0,0,0,0,0,0,0,0,0,0,0,0,0,0,0,0,0,0,0,0,0,0,0,0,0,0,0,0,0,0,0,0,0,0,0,0,0,0,0,0,0,0,0,0,0,0,0,0,0,0,0,0,0,0,0,0,0,0,0,0,0,0,0,0,0,0,0,0,0,0,0,0,0,0,0,0,0,0,0,0,0,0,0,0,0,0,0,0,0,0,0,0,0,0,0,0,0,0,0,0,0,0,0,0,0,0,0,0,0,0,0,0,0,0,0,0,0,0,0,0,0,0,0,0,0,0,0,0,0,0,0,0,0,0,0,0,0,0,0,0,0,0,0,0,0,0,0,0,0,0,0,0,0,0,0,0,0,0,0,0,0,0,0,0,0,0,0,0,0,0,0,0,0,0,0,0,0,0,0,0,0,0,0,0,0,0,0,0,0,0,0,0,0,0,0,0,0,0,0,0,0,0,0,0,0,0,0,0,0,0,0,0,0,0,0,0,0,0,0,0,0,0,0,0,0,0,0,0,0,0,0,0,0,0,0,0,0,0,0,0,0,0,0,0,0,0,0,0,0,0,0,0,0,0,0,0,0,0,0,0,0,0,0,0,0,0,0,0,0,0,0,0,0,0,0,0,0,0,0,0,0,0,0,0,0,0,0,0,0,0,0,0,0,0,0,0,0,0,0,0,0,0,0,0,0,0,0,0,0,0,0,0,0,0,0,0,0,0,0,0,0,0,0,0,0,0,0,0,0,0,0,0,0,0,0,0,0,0,0,0,0,0,0,0,0,0,0,0,0,0,0,0,0,0,0,0,0,0,0,0,0,0,0,0,0,0,0,0,0,0,0,0,0,0,0,0,0,0,0,0,0,0,0,0,0,0,0,0,0,0,0,0,0,0,0,0,0,0,0,0,0,0,0,0,0,0,0,0,0,0,0,0,0,0,0,0,0,0,0,0,0,0,0,0,0,0,0,0,0,0,0,0,0,0,0,0,0,0,0,0,0,0,0,0,0,0,0,0,0,0,0,0,0,0,0,0,0,0,0,0,0,0,0,0,0,0,0,0,0,0,0,0,0,0,0,0,0,0,0,0,0,0,0,0,0,0,0,0,0,0,0,0,0,0,0,0,0,0,0,0,0,0,0,0,0,0,0,0,0,0,0,0,0,0,0,0,0,0,0,0,0,0,0,0,0,0,0,0,0,0,0,0,0,0,0,0,0,0,0,0,0,0,0,0,0,0,0,0,0,0,0,0,0,0,0,0,0,0,0,0,0,0,0,0,0,0,0,0,0,0,0,0,0,0,0,0,0,0,0,0,0,0,0,0,0,0,0,0,0,0,0,0,0,0,0,0,0,0,0,0,0,0,0,0,0,0,0,0,0,0,0,0,0,0,0,0,0,0,0,0,0,0,0,0,0,0,0,0,0,0,0,0,0,0,0,0,0,0,0,0,0,0,0,0,0,0,0,0,0,0,0,0,0,0,0,0,0,0,0,0,0,0,0,0,0,0,0,0,0,0,0,0,0,0,0,0,0,0,0,0,0,0,0,0,0,0,0,0,0,0,0,0,0,0,0,0,0,0,0,0,0,0,0,0,0,0,0,0,0,0,0,0,0,0,0,0,0,0,0,0,0,0,0,0,0,0,0,0,0,0,0,0,0,0,0,0,0,0,0,0,0,0,0,0,0,0,0,0,0,0,0,0,0,0,0,0,0,0,0,0],"id":0,"left_children":[1,3,5,7,9,11,13,15,17,19,21,23,25,27,29,31,33,35,37,39,41,43,45,47,49,51,53,55,57,59,61,63,65,67,69,71,73,75,77,79,81,83,85,87,89,91,93,95,97,99,101,103,105,107,109,111,113,115,117,119,121,123,125,127,129,131,133,135,137,139,-1,141,143,145,147,149,151,153,155,157,159,-1,161,163,165,167,169,171,173,175,177,179,181,183,185,187,189,191,193,195,197,199,201,203,205,207,209,211,213,215,217,219,221,223,225,227,229,231,233,235,237,239,241,243,245,247,249,251,253,255,257,259,261,263,265,267,-1,269,-1,-1,-1,271,273,275,277,279,281,283,285,287,289,291,293,295,297,299,-1,301,-1,303,305,-1,307,309,-1,311,313,315,317,319,321,323,325,327,329,331,-1,333,335,-1,337,339,341,343,-1,345,347,349,351,353,355,357,359,-1,-1,361,363,365,367,369,371,373,375,377,379,381,-1,383,385,387,-1,389,391,393,395,397,-1,-1,-1,399,401,403,405,407,409,411,413,415,417,419,421,423,425,427,429,431,433,435,437,439,-1,441,-1,443,445,447,-1,449,-1,451,453,455,457,459,461,463,465,467,469,-1,471,473,475,-1,477,-1,-1,-1,-1,-1,479,481,483,485,487,489,491,493,495,497,499,501,503,505,507,509,-1,511,513,515,517,519,521,523,-1,525,527,529,531,-1,-1,533,535,537,539,-1,541,-1,-1,543,545,547,549,551,553,555,557,559,561,-1,563,565,567,569,571,573,575,577,579,581,-1,-1,583,-1,-1,-1,-1,585,587,589,-1,591,-1,593,-1,-1,595,-1,-1,597,-1,599,601,603,-1,-1,-1,605,-1,607,609,611,-1,613,615,617,619,621,623,625,627,629,631,633,-1,635,637,-1,-1,639,641,643,645,647,649,-1,651,-1,-1,653,655,657,659,661,663,665,667,-1,669,671,673,675,677,679,681,683,685,687,689,691,693,695,697,699,701,703,705,707,709,711,713,715,717,719,721,723,725,727,729,731,733,735,-1,737,739,741,743,745,747,-1,-1,-1,-1,749,751,753,755,757,-1,759,761,-1,-1,763,765,-1,-1,-1,-1,-1,-1,-1,-1,-1,-1,-1,-1,-1,-1,-1,-1,-1,-1,-1,-1,-1,-1,-1,-1,-1,-1,-1,-1,-1,-1,-1,-1,-1,-1,-1,-1,-1,-1,-1,-1,-1,-1,-1,-1,-1,-1,-1,-1,-1,-1,-1,-1,-1,-1,-1,-1,-1,-1,-1,-1,-1,-1,-1,-1,-1,-1,-1,-1,-1,-1,-1,-1,-1,-1,-1,-1,-1,-1,-1,-1,-1,-1,-1,-1,-1,-1,-1,-1,-1,-1,-1,-1,-1,-1,-1,-1,-1,-1,-1,-1,-1,-1,-1,-1,-1,-1,-1,-1,-1,-1,-1,-1,-1,-1,-1,-1,-1,-1,-1,-1,-1,-1,-1,-1,-1,-1,-1,-1,-1,-1,-1,-1,-1,-1,-1,-1,-1,-1,-1,-1,-1,-1,-1,-1,-1,-1,-1,-1,-1,-1,-1,-1,-1,-1,-1,-1,-1,-1,-1,-1,-1,-1,-1,-1,-1,-1,-1,-1,-1,-1,-1,-1,-1,-1,-1,-1,-1,-1,-1,-1,-1,-1,-1,-1,-1,-1,-1,-1,-1,-1,-1,-1,-1,-1,-1,-1,-1,-1,-1,-1,-1,-1,-1,-1,-1,-1,-1,-1,-1,-1,-1,-1,-1,-1,-1,-1,-1,-1,-1,-1,-1,-1,-1,-1,-1,-1,-1,-1,-1,-1,-1,-1,-1,-1,-1,-1,-1,-1,-1,-1,-1,-1,-1,-1,-1,-1,-1,-1,-1,-1,-1,-1,-1,-1,-1,-1,-1,-1,-1,-1,-1,-1,-1,-1,-1,-1,-1,-1,-1,-1,-1,-1,-1,-1,-1,-1,-1,-1,-1,-1,-1,-1,-1,-1,-1,-1,-1,-1,-1,-1,-1,-1,-1,-1,-1,-1,-1,-1,-1,-1,-1,-1,-1,-1,-1,-1,-1,-1,-1,-1,-1,-1],"loss_changes":[6.5178527E4,1.2308783E4,5.276715E3,7.35716E3,1.4395312E3,1.3746927E3,4.4333125E3,5.7623906E3,4.170766E3,1.5224055E3,2.2697925E2,7.056638E2,5.8276355E2,4.4180586E3,3.0715878E2,2.5885742E3,5.72403E3,1.4825454E3,3.0785066E3,8.303917E2,1.1113031E3,2.3846802E2,6.090735E1,2.2944775E2,6.105713E2,2.3135675E2,1.16526474E2,1.5355801E3,1.1379922E3,8.322775E1,1.10673325E2,1.8489414E3,9.401283E2,3.3206253E0,5.9722656E1,6.930991E2,1.6956396E2,1.7487021E3,3.6257805E3,2.1924985E2,5.1983643E0,6.053603E2,9.3780286E2,1.6145068E2,2.8531406E2,5.1518555E1,1.6221225E2,7.965015E1,2.122645E2,4.2467917E2,1.6927502E2,1.8002625E1,1.3930438E2,1.2187026E2,1.5269302E1,7.1239746E2,1.4054471E2,5.5303125E2,2.3289111E2,7.543445E1,1.5108562E1,7.298583E1,3.7504257E1,8.9808984E2,2.0237749E3,5.5600165E2,2.8627905E2,6.5605164E-1,1.5414047E-1,9.765625E-4,0E0,6.3758276E2,9.235205E1,1.8516797E2,1.3857544E1,1.2839601E3,9.541138E1,1.6696083E3,7.13166E2,1.07551575E2,2.2277832E2,0E0,4.8425293E-1,2.5123145E2,2.8236972E2,2.4513103E1,9.592334E1,1.7161444E2,2.64222E2,4.951668E0,1.0654907E0,3.4435333E1,3.355591E1,4.102188E0,8.417676E1,6.988086E1,4.3393364E0,5.8427807E1,1.7343405E2,7.821391E1,2.570014E2,6.001294E1,4.658795E1,4.192383E0,3.4199219E0,7.664522E1,1.0701327E2,1.0018444E2,5.2511547E1,1.9048843E1,4.450754E0,4.4865527E2,4.141328E2,7.693859E1,1.7989105E1,2.8192578E2,1.5870312E2,1.0513129E2,1.6278076E2,1.167735E2,3.6655136E1,3.0983367E0,2.64188E0,5.7853523E1,9.556736E0,2.8786083E1,2.7304703E1,8.012578E2,5.6939453E1,8.3171924E2,2.8151978E2,1.3617607E1,3.2313354E1,1.7286743E2,2.2998457E0,2.0056915E-1,0E0,6.514931E-2,0E0,0E0,0E0,2.997771E2,4.0195197E2,7.223169E1,5.1654163E1,4.3460205E1,3.560309E1,5.2821045E0,1.4433289E0,4.6883017E2,5.8941223E2,2.735376E1,2.4675184E1,4.84709E2,6.58621E3,4.8828125E-4,0E0,6.819288E1,0E0,1.0425256E2,4.052149E0,0E0,5.3588867E-2,1.8314423E2,0E0,1.9436569E2,3.255048E2,5.9153824E0,1.3564348E1,4.6532784E0,9.300818E1,1.16965576E2,5.0887547E1,7.5452957E0,7.082379E1,1.7138737E0,0E0,7.400513E-2,8.417053E-1,0E0,3.5422974E1,2.107782E1,1.2604492E1,3.1858664E0,0E0,6.818323E1,1.6614598E0,5.514322E1,4.4619995E1,8.453132E0,1.949482E-1,8.772394E0,3.9369507E1,0E0,0E0,5.0377182E1,3.2400665E1,1.0011074E2,2.5025476E2,2.4296814E1,3.646718E1,2.0109207E1,1.6942017E1,1.152318E0,2.5722046E0,1.8748474E0,0E0,6.472389E1,3.0163696E1,3.0857038E-1,0E0,8.8923805E1,3.3891693E1,3.53073E1,4.265976E0,2.0455322E1,0E0,0E0,0E0,3.4283313E2,1.2762988E2,1.1391965E3,2.8357617E2,2.5144789E1,2.8540318E1,1.1579918E1,9.968407E0,1.9841113E2,1.2826807E2,1.1393457E2,1.2197632E2,5.4144806E1,2.2102417E1,5.514746E1,6.3976562E1,9.58844E0,1.2018473E2,3.1670685E1,1.2628967E1,6.914922E-1,0E0,4.0280533E-1,0E0,4.931541E1,3.7822342E-1,6.5061264E0,0E0,1.433596E1,0E0,4.4574684E1,2.130471E1,4.243789E2,9.1352686E2,2.3641602E1,5.032715E1,7.034873E2,2.731583E2,1.5849352E0,2.3474634E2,0E0,6.4407578E0,2.1558914E1,1.3783875E0,0E0,1.8372534E2,0E0,0E0,0E0,0E0,0E0,9.7984314E-2,4.4039133E2,2.8690015E2,2.0140117E2,4.7929523E2,1.4379456E1,2.5559814E1,7.281245E1,7.2130295E1,1.0320801E1,1.7194092E1,1.5792753E1,1.55047E1,1.1035156E0,1.5482178E0,6.713791E-1,0E0,1.4767368E2,5.3837097E1,3.1367468E2,2.765888E2,2.4999756E1,3.3406334E0,3.8191566E0,0E0,4.413107E2,1.5958702E3,4.061621E1,4.844619E1,0E0,0E0,2.085537E1,1.16366825E1,2.0329346E1,1.3060563E1,0E0,4.443526E0,0E0,0E0,1.9865161E2,2.5039688E2,1.5429117E2,1.0661758E3,3.6237316E0,8.7835693E-1,2.9503136E0,7.0345116E-1,4.6144667E0,6.9021883E0,0E0,2.3358889E0,3.2494713E1,7.635278E1,7.648114E1,1.4538578E1,9.605385E0,3.557092E1,1.6259124E0,2.525813E0,3.7952393E1,0E0,0E0,1.0331154E-1,0E0,0E0,0E0,0E0,1.8630714E1,1.4180328E1,1.8189026E1,0E0,8.34491E0,0E0,2.9131465E0,0E0,0E0,3.1137726E1,0E0,0E0,9.635651E0,0E0,2.7493774E1,2.518628E1,1.3359799E0,0E0,0E0,0E0,5.691272E0,0E0,1.0663757E1,4.40282E1,4.175006E1,0E0,1.9173345E-1,2.9263466E1,1.8339668E1,4.9489975E1,7.90591E1,1.1242444E2,1.3869751E1,3.4603905E1,2.2519459E1,2.5168976E1,8.568558E0,0E0,2.1236084E1,3.8957615E0,0E0,0E0,2.0246582E0,1.7622681E0,3.6099625E-1,1.7000322E0,3.0410894E1,4.1742706E1,0E0,8.517548E0,0E0,0E0,2.0582878E1,8.130756E1,1.6479294E1,2.0559057E1,2.6843899E1,3.7797302E1,6.5944595E0,4.457426E-1,0E0,7.310356E0,6.467753E2,3.1473694E2,5.70484E1,4.9603516E1,4.290271E1,1.5247217E2,1.3796387E2,1.3206055E2,2.1284374E1,1.1491903E1,2.4846992E1,1.9441109E1,1.1292114E1,1.7582298E1,1.1164749E1,5.780819E0,1.5890796E2,1.16101074E2,5.344922E1,4.895581E1,4.2132812E1,6.2347656E1,4.8430176E1,3.5384033E1,5.67641E1,1.7659203E1,2.1551697E1,2.7012646E0,3.533319E1,2.0298004E1,3.293994E1,1.1925301E1,8.084991E0,0E0,5.6858536E1,1.9946537E0,1.8888287E1,1.6267883E1,1.0472763E1,6.9198837E0,0E0,0E0,0E0,0E0,3.9479378E1,2.984611E1,5.7115555E-2,1.54953E-2,2.9552765E0,0E0,3.055308E0,6.7756577E0,0E0,0E0,1.8459892E1,5.457901E0,0E0,0E0,0E0,0E0,0E0,0E0,0E0,0E0,0E0,0E0,0E0,0E0,0E0,0E0,0E0,0E0,0E0,0E0,0E0,0E0,0E0,0E0,0E0,0E0,0E0,0E0,0E0,0E0,0E0,0E0,0E0,0E0,0E0,0E0,0E0,0E0,0E0,0E0,0E0,0E0,0E0,0E0,0E0,0E0,0E0,0E0,0E0,0E0,0E0,0E0,0E0,0E0,0E0,0E0,0E0,0E0,0E0,0E0,0E0,0E0,0E0,0E0,0E0,0E0,0E0,0E0,0E0,0E0,0E0,0E0,0E0,0E0,0E0,0E0,0E0,0E0,0E0,0E0,0E0,0E0,0E0,0E0,0E0,0E0,0E0,0E0,0E0,0E0,0E0,0E0,0E0,0E0,0E0,0E0,0E0,0E0,0E0,0E0,0E0,0E0,0E0,0E0,0E0,0E0,0E0,0E0,0E0,0E0,0E0,0E0,0E0,0E0,0E0,0E0,0E0,0E0,0E0,0E0,0E0,0E0,0E0,0E0,0E0,0E0,0E0,0E0,0E0,0E0,0E0,0E0,0E0,0E0,0E0,0E0,0E0,0E0,0E0,0E0,0E0,0E0,0E0,0E0,0E0,0E0,0E0,0E0,0E0,0E0,0E0,0E0,0E0,0E0,0E0,0E0,0E0,0E0,0E0,0E0,0E0,0E0,0E0,0E0,0E0,0E0,0E0,0E0,0E0,0E0,0E0,0E0,0E0,0E0,0E0,0E0,0E0,0E0,0E0,0E0,0E0,0E0,0E0,0E0,0E0,0E0,0E0,0E0,0E0,0E0,0E0,0E0,0E0,0E0,0E0,0E0,0E0,0E0,0E0,0E0,0E0,0E0,0E0,0E0,0E0,0E0,0E0,0E0,0E0,0E0,0E0,0E0,0E0,0E0,0E0,0E0,0E0,0E0,0E0,0E0,0E0,0E0,0E0,0E0,0E0,0E0,0E0,0E0,0E0,0E0,0E0,0E0,0E0,0E0,0E0,0E0,0E0,0E0,0E0,0E0,0E0,0E0,0E0,0E0,0E0,0E0,0E0,0E0,0E0,0E0,0E0,0E0,0E0,0E0,0E0,0E0,0E0,0E0,0E0,0E0,0E0,0E0,0E0,0E0,0E0,0E0,0E0,0E0,0E0,0E0,0E0,0E0,0E0,0E0,0E0,0E0,0E0,0E0,0E0,0E0,0E0,0E0,0E0,0E0,0E0,0E0,0E0,0E0,0E0,0E0,0E0,0E0,0E0,0E0,0E0,0E0,0E0,0E0,0E0,0E0,0E0,0E0,0E0,0E0,0E0,0E0,0E0,0E0,0E0,0E0,0E0,0E0,0E0,0E0],"parents":[2147483647,0,0,1,1,2,2,3,3,4,4,5,5,6,6,7,7,8,8,9,9,10,10,11,11,12,12,13,13,14,14,15,15,16,16,17,17,18,18,19,19,20,20,21,21,22,22,23,23,24,24,25,25,26,26,27,27,28,28,29,29,30,30,31,31,32,32,33,33,34,34,35,35,36,36,37,37,38,38,39,39,40,40,41,41,42,42,43,43,44,44,45,45,46,46,47,47,48,48,49,49,50,50,51,51,52,52,53,53,54,54,55,55,56,56,57,57,58,58,59,59,60,60,61,61,62,62,63,63,64,64,65,65,66,66,67,67,68,68,69,69,71,71,72,72,73,73,74,74,75,75,76,76,77,77,78,78,79,79,80,80,82,82,83,83,84,84,85,85,86,86,87,87,88,88,89,89,90,90,91,91,92,92,93,93,94,94,95,95,96,96,97,97,98,98,99,99,100,100,101,101,102,102,103,103,104,104,105,105,106,106,107,107,108,108,109,109,110,110,111,111,112,112,113,113,114,114,115,115,116,116,117,117,118,118,119,119,120,120,121,121,122,122,123,123,124,124,125,125,126,126,127,127,128,128,129,129,130,130,131,131,132,132,133,133,134,134,135,135,137,137,141,141,142,142,143,143,144,144,145,145,146,146,147,147,148,148,149,149,150,150,151,151,152,152,153,153,154,154,155,155,157,157,159,159,160,160,162,162,163,163,165,165,166,166,167,167,168,168,169,169,170,170,171,171,172,172,173,173,174,174,175,175,177,177,178,178,180,180,181,181,182,182,183,183,185,185,186,186,187,187,188,188,189,189,190,190,191,191,192,192,195,195,196,196,197,197,198,198,199,199,200,200,201,201,202,202,203,203,204,204,205,205,207,207,208,208,209,209,211,211,212,212,213,213,214,214,215,215,219,219,220,220,221,221,222,222,223,223,224,224,225,225,226,226,227,227,228,228,229,229,230,230,231,231,232,232,233,233,234,234,235,235,236,236,237,237,238,238,239,239,241,241,243,243,244,244,245,245,247,247,249,249,250,250,251,251,252,252,253,253,254,254,255,255,256,256,257,257,258,258,260,260,261,261,262,262,264,264,270,270,271,271,272,272,273,273,274,274,275,275,276,276,277,277,278,278,279,279,280,280,281,281,282,282,283,283,284,284,285,285,287,287,288,288,289,289,290,290,291,291,292,292,293,293,295,295,296,296,297,297,298,298,301,301,302,302,303,303,304,304,306,306,309,309,310,310,311,311,312,312,313,313,314,314,315,315,316,316,317,317,318,318,320,320,321,321,322,322,323,323,324,324,325,325,326,326,327,327,328,328,329,329,332,332,337,337,338,338,339,339,341,341,343,343,346,346,349,349,351,351,352,352,353,353,357,357,359,359,360,360,361,361,363,363,364,364,365,365,366,366,367,367,368,368,369,369,370,370,371,371,372,372,373,373,375,375,376,376,379,379,380,380,381,381,382,382,383,383,384,384,386,386,389,389,390,390,391,391,392,392,393,393,394,394,395,395,396,396,398,398,399,399,400,400,401,401,402,402,403,403,404,404,405,405,406,406,407,407,408,408,409,409,410,410,411,411,412,412,413,413,414,414,415,415,416,416,417,417,418,418,419,419,420,420,421,421,422,422,423,423,424,424,425,425,426,426,427,427,428,428,429,429,430,430,431,431,433,433,434,434,435,435,436,436,437,437,438,438,443,443,444,444,445,445,446,446,447,447,449,449,450,450,453,453,454,454],"right_children":[2,4,6,8,10,12,14,16,18,20,22,24,26,28,30,32,34,36,38,40,42,44,46,48,50,52,54,56,58,60,62,64,66,68,70,72,74,76,78,80,82,84,86,88,90,92,94,96,98,100,102,104,106,108,110,112,114,116,118,120,122,124,126,128,130,132,134,136,138,140,-1,142,144,146,148,150,152,154,156,158,160,-1,162,164,166,168,170,172,174,176,178,180,182,184,186,188,190,192,194,196,198,200,202,204,206,208,210,212,214,216,218,220,222,224,226,228,230,232,234,236,238,240,242,244,246,248,250,252,254,256,258,260,262,264,266,268,-1,270,-1,-1,-1,272,274,276,278,280,282,284,286,288,290,292,294,296,298,300,-1,302,-1,304,306,-1,308,310,-1,312,314,316,318,320,322,324,326,328,330,332,-1,334,336,-1,338,340,342,344,-1,346,348,350,352,354,356,358,360,-1,-1,362,364,366,368,370,372,374,376,378,380,382,-1,384,386,388,-1,390,392,394,396,398,-1,-1,-1,400,402,404,406,408,410,412,414,416,418,420,422,424,426,428,430,432,434,436,438,440,-1,442,-1,444,446,448,-1,450,-1,452,454,456,458,460,462,464,466,468,470,-1,472,474,476,-1,478,-1,-1,-1,-1,-1,480,482,484,486,488,490,492,494,496,498,500,502,504,506,508,510,-1,512,514,516,518,520,522,524,-1,526,528,530,532,-1,-1,534,536,538,540,-1,542,-1,-1,544,546,548,550,552,554,556,558,560,562,-1,564,566,568,570,572,574,576,578,580,582,-1,-1,584,-1,-1,-1,-1,586,588,590,-1,592,-1,594,-1,-1,596,-1,-1,598,-1,600,602,604,-1,-1,-1,606,-1,608,610,612,-1,614,616,618,620,622,624,626,628,630,632,634,-1,636,638,-1,-1,640,642,644,646,648,650,-1,652,-1,-1,654,656,658,660,662,664,666,668,-1,670,672,674,676,678,680,682,684,686,688,690,692,694,696,698,700,702,704,706,708,710,712,714,716,718,720,722,724,726,728,730,732,734,736,-1,738,740,742,744,746,748,-1,-1,-1,-1,750,752,754,756,758,-1,760,762,-1,-1,764,766,-1,-1,-1,-1,-1,-1,-1,-1,-1,-1,-1,-1,-1,-1,-1,-1,-1,-1,-1,-1,-1,-1,-1,-1,-1,-1,-1,-1,-1,-1,-1,-1,-1,-1,-1,-1,-1,-1,-1,-1,-1,-1,-1,-1,-1,-1,-1,-1,-1,-1,-1,-1,-1,-1,-1,-1,-1,-1,-1,-1,-1,-1,-1,-1,-1,-1,-1,-1,-1,-1,-1,-1,-1,-1,-1,-1,-1,-1,-1,-1,-1,-1,-1,-1,-1,-1,-1,-1,-1,-1,-1,-1,-1,-1,-1,-1,-1,-1,-1,-1,-1,-1,-1,-1,-1,-1,-1,-1,-1,-1,-1,-1,-1,-1,-1,-1,-1,-1,-1,-1,-1,-1,-1,-1,-1,-1,-1,-1,-1,-1,-1,-1,-1,-1,-1,-1,-1,-1,-1,-1,-1,-1,-1,-1,-1,-1,-1,-1,-1,-1,-1,-1,-1,-1,-1,-1,-1,-1,-1,-1,-1,-1,-1,-1,-1,-1,-1,-1,-1,-1,-1,-1,-1,-1,-1,-1,-1,-1,-1,-1,-1,-1,-1,-1,-1,-1,-1,-1,-1,-1,-1,-1,-1,-1,-1,-1,-1,-1,-1,-1,-1,-1,-1,-1,-1,-1,-1,-1,-1,-1,-1,-1,-1,-1,-1,-1,-1,-1,-1,-1,-1,-1,-1,-1,-1,-1,-1,-1,-1,-1,-1,-1,-1,-1,-1,-1,-1,-1,-1,-1,-1,-1,-1,-1,-1,-1,-1,-1,-1,-1,-1,-1,-1,-1,-1,-1,-1,-1,-1,-1,-1,-1,-1,-1,-1,-1,-1,-1,-1,-1,-1,-1,-1,-1,-1,-1,-1,-1,-1,-1,-1,-1,-1,-1,-1,-1,-1,-1,-1,-1,-1,-1,-1,-1,-1,-1,-1,-1,-1,-1,-1,-1,-1,-1,-1,-1,-1,-1,-1,-1,-1,-1],"split_conditions":[4.2013668E-2,1E0,1.16248885E-2,-4.1887358E-1,-1.04886495E-1,1E0,1E0,1E0,1E0,-5.3754324E-1,1.2926959E-1,-5.239655E-1,6.1812276E-1,6.1812276E-1,7.3334455E-1,1E0,1E0,1E0,1E0,1E0,1E0,1E0,1E0,1.8855627E0,1E0,1E0,1E0,1E0,1E0,1E0,6.8126E-1,1E0,1E0,1.1719832E-3,1E0,1E0,1E0,1E0,1E0,1E0,1E0,-6.493172E-1,1E0,1E0,1E0,-1.8842995E-1,1E0,1E0,9.835868E0,1E0,7.3334455E-1,-2.157643E-1,1E0,4.5356646E0,1E0,1E0,4.5229736E-1,4.5229736E-1,9.6378815E-1,1.5723547E-1,3.876791E-1,2.3464499E0,1.4246755E0,1E0,1E0,1E0,-5.3843305E-2,-5.340954E-1,1E0,1E0,-1.0387931E0,-1.5837236E-1,1E0,1.0570103E-1,6.172167E-1,1.16248885E-2,1E0,1.2175041E-2,1E0,1E0,-9.9498266E-1,-4.600427E-1,1E0,1E0,1E0,-6.493172E-1,1E0,1E0,1E0,-1.8842995E-1,1E0,-7.64539E-1,3.624684E-1,3.9728206E-1,1E0,1E0,8.4856635E-1,-5.3797233E-1,-5.324763E-1,-3.2567475E-3,-2.632315E-1,1E0,-1.8037847E-1,1E0,1E0,1E0,1E0,1.3094536E0,8.222762E0,6.4944353E0,-4.7476527E-1,1E0,1.4375652E-2,3.876791E-1,7.108692E-1,1E0,1E0,4.1378665E-1,2.8174996E-1,1E0,1E0,1E0,5.788325E-1,1E0,1E0,1E0,7.108692E-1,-2.8135905E-1,-6.493172E-1,1E0,1E0,-4.668541E-1,1E0,1E0,1E0,-6.493172E-1,1.3070235E-1,-5.340954E-1,1.0110952E-1,-1.3701403E0,-1.3701403E0,-5.3681153E-1,1E0,1E0,-2.0659326E-1,-1.8842995E-1,1E0,1.767657E-2,1E0,1E0,1E0,1E0,9.5974326E-2,1E0,1.4375652E-2,1E0,9.228849E-2,-6.493172E-1,-4.2520738E-1,1E0,-8.7976086E-1,-5.70548E-1,1E0,1E0,-6.165804E-1,1E0,1E0,1E0,1E0,-5.340954E-1,1E0,1E0,-5.340954E-1,1E0,1E0,1E0,-1.1101487E-1,-3.0365178E-1,-6.129788E-2,-3.4128127E-1,1E0,1E0,1E0,1E0,-1.4318675E-1,1.5521479E-1,2.8675085E-1,1E0,6.1812276E-1,-5.324763E-1,-5.3681153E-1,1E0,2.0007844E0,-9.228042E-2,-9.5158607E-1,1E0,1E0,1E0,5.029009E-1,1E0,1E0,1E0,1E0,-3.6129075E-1,1E0,-1.3086471E-1,1.4837354E-1,-5.288013E-1,1E0,-1.9364816E-1,-6.967785E-1,-5.239655E-1,1E0,-5.3754324E-1,9.720646E0,-4.668541E-1,-1.00482345E-1,-1.9708803E-2,-1.7361365E-1,1.4375652E-2,2.724573E-1,1E0,2.724573E-1,1E0,1E0,1E0,1E0,1E0,1.07901E0,9.6378815E-1,1E0,1E0,1E0,4.88133E0,1E0,1.2225114E0,1.6528259E-1,1E0,1E0,1.8125352E-1,-1.0081402E-1,2.3773773E-1,-2.623009E-1,2.8725147E-1,3.8306612E-1,1E0,6.002492E-2,8.924197E-1,-2.3288193E-1,1E0,1E0,-5.3754324E-1,1E0,1E0,1E0,1E0,1E0,-5.340954E-1,-1.3086471E-1,-1.3301249E-2,1E0,-7.64539E-1,1E0,8.576183E-2,1E0,1.3029718E-1,3.700323E-2,1.6674814E-1,1.8603477E-1,1.2984821E-1,3.3126372E-1,1E0,1E0,1E0,1E0,1E0,7.108692E-1,-2.4033964E-1,-7.3208146E-2,1E0,1E0,4.221985E-1,-1.8842995E-1,1E0,1E0,1E0,1.4933112E-1,1E0,-1.8529683E-1,1E0,1E0,1E0,-2.0238459E-1,1E0,-1.8946028E-1,1E0,1E0,1E0,1E0,-1.3701403E0,-1.3701403E0,1E0,1E0,-1.1102045E0,1E0,-9.849604E-2,1E0,-5.4001397E-1,-5.46477E-1,1E0,1E0,1E0,1E0,-4.1887358E-1,-3.0365178E-1,1E0,1E0,-1.8842995E-1,1E0,5.9088066E-2,-2.2513892E-1,1E0,1E0,1E0,1E0,1E0,1E0,-3.0365178E-1,-3.0365178E-1,1E0,-5.669349E-1,2.8967198E-2,1.16248885E-2,-6.058408E-1,-5.8772236E-1,-5.212111E-1,-5.8271474E-1,1E0,1E0,1E0,-2.508573E-1,1E0,-2.639387E-1,1E0,-1.1230911E-1,-8.234845E-1,2.3053072E-1,-1.7712718E-3,-9.580429E-2,1E0,-5.1847625E-1,1E0,1E0,1E0,-7.750553E-2,-6.539935E-2,-3.6589548E-2,1E0,1.6542518E-1,1E0,8.568428E0,1E0,-2.532815E-1,7.3334455E-1,1E0,1E0,2.724573E-1,1E0,1E0,2.724573E-1,1E0,1E0,1E0,1E0,1.2390063E-1,1.1942317E0,1E0,1.3173737E-1,6.316884E-2,-4.1156372E-1,1E0,3.876791E-1,-1.0885859E-1,1E0,1E0,-1.2289515E-1,1.5723547E-1,-5.3735856E-2,-9.311813E-2,1E0,-1.3086471E-1,1E0,1E0,1E0,1E0,1E0,-5.288013E-1,-5.247305E-1,1E0,1E0,2.724573E-1,1E0,1E0,1E0,1E0,1E0,2.8174996E-1,1E0,1E0,1E0,2.3053072E-1,1.5723547E-1,3.876791E-1,5.029009E-1,1E0,1E0,1E0,1E0,1E0,1E0,1E0,1E0,1E0,1E0,1E0,1E0,1E0,1E0,1E0,4.3052206E0,1.4246755E0,1E0,-1.2637449E-2,1E0,1E0,1E0,2.724573E-1,5.183157E-1,5.029009E-1,1.0726219E-2,-4.277416E-2,-1.8598564E-1,-1.4436486E-1,1.4375652E-2,1E0,1.07901E0,4.9630958E-1,2.6921153E0,-1.3900149E-2,1E0,1E0,-6.915567E-2,-4.7888955E-1,1E0,1E0,-3.4689054E-2,1.21055305E-1,8.809786E-2,-4.890879E-2,1.673061E-1,1.506229E-1,1.343166E-1,1.7947589E-1,6.2279765E-2,1.1182625E-1,-1.6356574E-1,-6.996966E-1,1.09682515E-1,3.384648E-2,-4.5704317E-1,-8.605694E-2,1.8941046E-1,1.16286695E-1,-5.3107977E-1,-2.1981177E-1,-6.1645997E-1,-6.996966E-1,-5.074739E-1,1.310828E-1,1.1189065E-1,1.3099639E-1,-2.7138866E-2,-7.496564E-1,8.7618195E-2,-1.5357005E-2,2.68179E-2,-1.1301999E-2,6.925299E-2,-6.465399E-1,6.842923E-2,1.2510294E-1,1.6158493E-1,5.8254354E-2,8.002312E-2,-4.2824477E-1,1.3561569E-1,-1.0198073E-1,1.0551406E-1,1.3327189E-1,1.0812742E-1,5.407864E-2,4.9809966E-2,-1.470663E-2,9.445428E-2,6.740074E-2,1.8133976E-1,2.0571381E-1,1.3387136E-1,1.6449301E-1,1.00273475E-1,1.3758703E-1,4.1873707E-3,5.7226267E-2,1.09252736E-1,6.146418E-2,-5.114598E-2,4.5775354E-2,-8.70167E-3,-5.6936246E-1,1.5305607E-1,2.6666306E-2,1.0574081E-1,4.3831125E-2,3.725767E-3,5.7010304E-2,1.235237E-2,-6.337565E-1,3.2710984E-2,-1.094892E0,-9.692585E-1,-1.2179329E0,-7.665171E-3,-9.1270566E-2,1.6375007E-1,-4.8302365E-3,-1.2780595E-1,-1.5058792E-2,-4.8644415E-1,-3.457899E-1,1.2086113E-1,-1.1607943E-1,-2.6306046E-2,7.527755E-2,7.31004E-2,-1.3891682E-1,2.939499E-2,-2.3093732E-1,2.4644542E-2,-1.0368243E-2,-2.4136614E-2,-6.8264306E-1,6.394642E-2,-1.8029878E-2,-5.1672465E-1,-5.697975E-1,1.11701325E-1,1.94352E-1,6.778944E-2,2.463005E-2,-2.1236112E-2,-1.441694E-1,5.9978794E-2,1.0366285E-2,-9.8152936E-2,4.305357E-3,6.521144E-2,-1.7078803E-1,-2.8184313E-1,-4.285941E-2,-4.8452884E-2,-1.400645E-1,1.6303075E-2,1.1272549E-1,3.702873E-2,1.5587051E-1,-9.859437E-3,-1.05418295E-1,5.8733374E-2,1.0209509E-2,-3.0073915E-3,-4.3587036E-2,-1.5058754E-1,-2.73739E-1,-2.6633114E-2,-4.94207E-2,-3.1438872E-2,-1.4461118E-1,-7.0292786E-2,-1.773056E-1,-6.319488E-2,-8.7755375E-2,-1.08878955E-1,-1.8323293E-1,-5.8400493E-2,-4.8880186E-3,-2.5424823E-1,-5.059213E-1,-2.8527227E-1,-1.3750991E-1,-1.3124643E-1,-3.0451584E-1,-1.9682418E-1,-1.07637145E-1,4.509311E-2,1.072272E-1,3.089244E-2,1.4798048E-1,-5.7829414E-2,1.3396136E-1,-8.6464055E-2,5.360972E-2,7.077655E-2,-4.9370904E-3,-3.258057E-2,-4.408927E-3,-4.0789345E-1,-5.3225942E-2,-5.1361468E-2,-1.658367E-1,5.3850323E-2,2.3953242E-3,-4.426678E-3,-4.093826E-2,-3.0744305E-2,-8.126365E-2,-7.40938E-2,-9.904227E-2,-1.3089158E-1,-4.7496828E-1,-3.5961922E-2,5.8246642E-2,-7.8275025E-2,1.4695138E-3,-7.472563E-2,-1.1871825E-1,-1.3930398E-1,-1.8931064E-1,-8.28184E-2,4.048709E-2,1.4967878E-1,1.2608674E-1,1.6653152E-1,1.1303614E-1,1.056366E-1,7.695612E-2,8.451619E-3,7.668664E-2,-1.6076726E-1,3.6987938E-2,4.9203884E-2,-7.553414E-2,1.799262E-1,1.1875121E-1,3.062683E-2,-1.3778436E-1,4.0718067E-2,-2.2848595E-2,-6.506824E-2,-1.8383022E-2,-1.655058E-2,-1.5944093E-1,-2.1612233E-1,-1.873349E-2,5.397497E-3,6.180343E-2,7.499755E-2,1.409356E-1,3.2114346E-2,6.926541E-2,-1.7551187E-1,-3.4442183E-1,-1.4967975E-2,-5.909214E-1,-2.3884093E-2,-7.21041E-2,-1.0385716E-1,-5.7617005E-2,-1.43903E-1,-1.0702416E-1,-1.1843649E-1,-3.2083634E-1,-6.4972466E-1,-1.1324577E0,-7.438956E-2,-1.14961445E-1,-1.0576869E-1,-1.3664058E-1,2.4086062E-2,-5.5046752E-2,-3.6609985E-2,5.2975374E-3,-2.8162867E-2,-1.1819402E-1,4.1087918E-2,-1.9013276E-2,-1.2989002E-2,-4.565605E-2,-2.8933033E-1,-3.199729E-2,-5.1532306E-2,-1.05251774E-1,-5.1768105E-2,-1.6955827E-1,-1.232815E-1,-4.7244605E-2,-1.4824319E-1,-2.8014573E-1,-1.6150688E-1,-3.5478074E-2,-2.1276908E-1,-6.608829E-2,-1.6726339E-1,-2.0053002E-1,-2.8149384E-1,-2.0692848E-1,-1.00790545E-1,-1.6620365E-1,-1.6465124E-1,-2.1808083E-1,-6.589164E-2,2.1720286E-2,-2.5015803E-2,9.6739896E-2,-1.1118644E-1,-6.1064385E-2,-7.0856676E-2,7.709452E-5,-9.3249E-2,-2.0432349E-1,-2.1130589E-1,3.0415345E-3,-1.4923151E-1,-5.7675023E-2,-7.701503E-2,2.3921441E-2,1.273224E-1,1.0136026E-3,-2.5129694E-2,-4.381133E-1,1.397379E-1,6.449449E-2,6.1107525E-3,8.4439516E-2,-5.40763E-3,6.14173E-2,1.2090647E-1,6.508268E-2,7.040656E-2,2.319625E-2,-1.3830058E-1,5.6127593E-2,-6.8163252E-3,9.37862E-2,-1.4256175E-1,-1.5847713E-1,-1.8236154E-1,-1.7379999E-1,-8.4038466E-2,-1.3314658E-1,-1.2347111E-3,-7.642798E-2,-4.428564E-2,-1.5581684E-1,-5.713363E-2,-1.9396585E-1,-2.8811845E-1,-1.5495028E-1],"split_indices":[143,100,142,143,142,103,92,97,126,142,142,142,143,143,143,62,50,125,50,39,78,96,78,143,115,111,107,103,103,39,142,126,126,142,13,92,92,92,97,140,115,143,140,78,63,143,140,92,143,94,143,142,27,143,7,126,142,142,143,143,143,143,143,125,71,115,142,143,128,24,0,142,45,142,142,142,39,142,13,20,143,0,111,118,96,143,105,117,140,143,114,143,142,142,36,94,143,142,142,142,142,102,142,116,141,92,45,143,143,143,142,115,142,143,142,115,38,142,142,45,125,100,142,39,38,39,142,142,143,87,111,142,121,111,102,143,0,143,0,0,0,142,103,127,142,143,114,142,130,116,73,4,142,103,142,4,0,143,0,20,143,0,126,140,0,50,63,115,105,143,111,116,143,115,20,13,0,143,142,0,126,136,124,129,0,142,142,45,143,142,142,138,143,0,0,16,96,105,143,54,126,92,128,142,124,142,0,142,105,142,0,142,7,142,143,142,0,0,0,142,143,50,143,126,127,78,84,126,143,143,126,23,23,143,38,142,142,127,13,142,0,142,0,142,142,100,0,142,0,103,26,142,50,113,92,113,96,143,142,0,94,143,21,0,130,0,0,0,0,0,142,128,50,115,129,124,142,142,143,114,116,142,143,14,114,50,0,113,142,103,140,26,142,113,0,3,4,17,140,0,0,115,45,143,45,0,117,0,0,55,26,115,113,143,143,40,7,143,115,0,142,115,20,60,29,40,60,143,143,126,0,0,142,0,0,0,0,55,60,126,0,21,0,114,0,0,142,0,0,100,0,81,116,33,0,0,0,119,0,67,143,45,0,143,7,140,143,126,111,143,30,125,23,126,0,143,140,0,0,142,131,143,142,127,115,0,143,0,0,94,142,120,78,111,7,13,142,0,13,138,143,102,102,76,16,100,142,78,114,115,142,143,143,143,114,38,47,125,125,115,105,115,115,38,117,38,114,27,105,143,143,4,0,127,102,14,143,142,143,0,0,0,0,142,117,143,142,143,0,75,55,0,0,84,102,0,0,0,0,0,0,0,0,0,0,0,0,0,0,0,0,0,0,0,0,0,0,0,0,0,0,0,0,0,0,0,0,0,0,0,0,0,0,0,0,0,0,0,0,0,0,0,0,0,0,0,0,0,0,0,0,0,0,0,0,0,0,0,0,0,0,0,0,0,0,0,0,0,0,0,0,0,0,0,0,0,0,0,0,0,0,0,0,0,0,0,0,0,0,0,0,0,0,0,0,0,0,0,0,0,0,0,0,0,0,0,0,0,0,0,0,0,0,0,0,0,0,0,0,0,0,0,0,0,0,0,0,0,0,0,0,0,0,0,0,0,0,0,0,0,0,0,0,0,0,0,0,0,0,0,0,0,0,0,0,0,0,0,0,0,0,0,0,0,0,0,0,0,0,0,0,0,0,0,0,0,0,0,0,0,0,0,0,0,0,0,0,0,0,0,0,0,0,0,0,0,0,0,0,0,0,0,0,0,0,0,0,0,0,0,0,0,0,0,0,0,0,0,0,0,0,0,0,0,0,0,0,0,0,0,0,0,0,0,0,0,0,0,0,0,0,0,0,0,0,0,0,0,0,0,0,0,0,0,0,0,0,0,0,0,0,0,0,0,0,0,0,0,0,0,0,0,0,0,0,0,0,0,0,0,0,0,0,0,0,0,0,0,0,0,0,0,0,0,0,0,0,0,0,0,0,0,0,0,0,0,0],"split_type":[0,0,0,0,0,0,0,0,0,0,0,0,0,0,0,0,0,0,0,0,0,0,0,0,0,0,0,0,0,0,0,0,0,0,0,0,0,0,0,0,0,0,0,0,0,0,0,0,0,0,0,0,0,0,0,0,0,0,0,0,0,0,0,0,0,0,0,0,0,0,0,0,0,0,0,0,0,0,0,0,0,0,0,0,0,0,0,0,0,0,0,0,0,0,0,0,0,0,0,0,0,0,0,0,0,0,0,0,0,0,0,0,0,0,0,0,0,0,0,0,0,0,0,0,0,0,0,0,0,0,0,0,0,0,0,0,0,0,0,0,0,0,0,0,0,0,0,0,0,0,0,0,0,0,0,0,0,0,0,0,0,0,0,0,0,0,0,0,0,0,0,0,0,0,0,0,0,0,0,0,0,0,0,0,0,0,0,0,0,0,0,0,0,0,0,0,0,0,0,0,0,0,0,0,0,0,0,0,0,0,0,0,0,0,0,0,0,0,0,0,0,0,0,0,0,0,0,0,0,0,0,0,0,0,0,0,0,0,0,0,0,0,0,0,0,0,0,0,0,0,0,0,0,0,0,0,0,0,0,0,0,0,0,0,0,0,0,0,0,0,0,0,0,0,0,0,0,0,0,0,0,0,0,0,0,0,0,0,0,0,0,0,0,0,0,0,0,0,0,0,0,0,0,0,0,0,0,0,0,0,0,0,0,0,0,0,0,0,0,0,0,0,0,0,0,0,0,0,0,0,0,0,0,0,0,0,0,0,0,0,0,0,0,0,0,0,0,0,0,0,0,0,0,0,0,0,0,0,0,0,0,0,0,0,0,0,0,0,0,0,0,0,0,0,0,0,0,0,0,0,0,0,0,0,0,0,0,0,0,0,0,0,0,0,0,0,0,0,0,0,0,0,0,0,0,0,0,0,0,0,0,0,0,0,0,0,0,0,0,0,0,0,0,0,0,0,0,0,0,0,0,0,0,0,0,0,0,0,0,0,0,0,0,0,0,0,0,0,0,0,0,0,0,0,0,0,0,0,0,0,0,0,0,0,0,0,0,0,0,0,0,0,0,0,0,0,0,0,0,0,0,0,0,0,0,0,0,0,0,0,0,0,0,0,0,0,0,0,0,0,0,0,0,0,0,0,0,0,0,0,0,0,0,0,0,0,0,0,0,0,0,0,0,0,0,0,0,0,0,0,0,0,0,0,0,0,0,0,0,0,0,0,0,0,0,0,0,0,0,0,0,0,0,0,0,0,0,0,0,0,0,0,0,0,0,0,0,0,0,0,0,0,0,0,0,0,0,0,0,0,0,0,0,0,0,0,0,0,0,0,0,0,0,0,0,0,0,0,0,0,0,0,0,0,0,0,0,0,0,0,0,0,0,0,0,0,0,0,0,0,0,0,0,0,0,0,0,0,0,0,0,0,0,0,0,0,0,0,0,0,0,0,0,0,0,0,0,0,0,0,0,0,0,0,0,0,0,0,0,0,0,0,0,0,0,0,0,0,0,0,0,0,0,0,0,0,0,0,0,0,0,0,0,0,0,0,0,0,0,0,0,0,0,0,0,0,0,0,0,0,0,0,0,0,0,0,0,0,0,0,0,0,0,0,0,0,0,0,0,0,0,0,0,0,0,0,0,0,0,0,0,0,0,0,0,0,0,0,0,0,0,0,0,0,0,0,0,0,0,0,0,0,0,0,0,0,0,0,0,0,0,0,0,0,0,0,0],"sum_hessian":[3.13028E5,1.9385E5,1.19178E5,1.5543E5,3.842E4,2.9491E4,8.9687E4,8.8986E4,6.6444E4,2.1046E4,1.7374E4,2.113E4,8.361E3,8.3877E4,5.81E3,8.8762E4,2.24E2,4.0155E4,2.6289E4,5.45E2,2.0501E4,1.1768E4,5.606E3,2.207E3,1.8923E4,2.997E3,5.364E3,4.4646E4,3.9231E4,2.906E3,2.904E3,8.8282E4,4.8E2,1.05E2,1.19E2,3.0868E4,9.287E3,2.4179E4,2.11E3,4E2,1.45E2,1.9427E4,1.074E3,1.1683E4,8.5E1,5.417E3,1.89E2,1.583E3,6.24E2,1.3948E4,4.975E3,8.03E2,2.194E3,5.307E3,5.7E1,3.7857E4,6.789E3,2.9901E4,9.33E3,2.843E3,6.3E1,1.928E3,9.76E2,5.9E4,2.9282E4,1.99E2,2.81E2,5.4E1,5.1E1,1.06E2,1.3E1,2.8924E4,1.944E3,8.074E3,1.213E3,2.2271E4,1.908E3,2.039E3,7.1E1,1.72E2,2.28E2,1.7E1,1.28E2,7.596E3,1.1831E4,4.06E2,6.68E2,1.1222E4,4.61E2,4.6E1,3.9E1,2.138E3,3.279E3,1.22E2,6.7E1,1.522E3,6.1E1,6.04E2,2E1,1.351E3,1.2597E4,3.767E3,1.208E3,6.43E2,1.6E2,2.168E3,2.6E1,3.963E3,1.344E3,4.1E1,1.6E1,1.7286E4,2.0571E4,4.837E3,1.952E3,1.9003E4,1.0898E4,3.855E3,5.475E3,6.45E2,2.198E3,3.5E1,2.8E1,1.79E3,1.38E2,6.61E2,3.15E2,4.467E4,1.433E4,2.9019E4,2.63E2,1.63E2,3.6E1,2.57E2,2.4E1,4.6E1,8E0,4.1E1,1E1,9.6E1,1E1,8.397E3,2.0527E4,1.795E3,1.49E2,5.814E3,2.26E3,1.11E3,1.03E2,1.2297E4,9.974E3,1.771E3,1.37E2,1.195E3,8.44E2,6.3E1,8E0,1.6E2,1.2E1,1.49E2,7.9E1,1.5E1,1.13E2,7.584E3,1.2E1,1.1736E4,9.5E1,1.18E2,2.88E2,3.4E1,6.34E2,8.386E3,2.836E3,2.34E2,2.27E2,3.2E1,1.4E1,2E1,1.9E1,9E0,2.129E3,2.648E3,6.31E2,1.11E2,1.1E1,5.1E1,1.6E1,5.8E1,1.464E3,4.1E1,2E1,1.01E2,5.03E2,1E1,1E1,1.309E3,4.2E1,2.574E3,1.0023E4,1.934E3,1.833E3,3.86E2,8.22E2,2.3E1,6.2E2,1.39E2,2.1E1,1.916E3,2.52E2,1.7E1,9E0,1.863E3,2.1E3,1.173E3,1.71E2,3E1,1.1E1,8E0,8E0,1.1793E4,5.493E3,2.87E2,2.0284E4,2.692E3,2.145E3,1.506E3,4.46E2,1.3496E4,5.507E3,8.651E3,2.247E3,2.136E3,1.719E3,2.119E3,3.356E3,5.82E2,6.3E1,1.603E3,5.95E2,2.1E1,1.4E1,2E1,8E0,1.752E3,3.8E1,1.3E2,8E0,6.46E2,1.5E1,2.3E1,2.92E2,3.1202E4,1.3468E4,7.781E3,6.549E3,2.8828E4,1.91E2,3E1,2.33E2,1.5E1,1.48E2,1.9E1,1.7E1,1.2E1,2.45E2,9E0,1.5E1,2.4E1,2.2E1,1.3E1,2.8E1,1.45E2,8.252E3,1.5874E4,4.653E3,4.18E2,1.377E3,2.4E1,1.25E2,3.518E3,2.296E3,4.55E2,1.805E3,3.71E2,7.39E2,8.3E1,2E1,1.0272E4,2.025E3,9.881E3,9.3E1,1.688E3,8.3E1,1.26E2,1.1E1,1.067E3,1.28E2,2.21E2,6.23E2,3.5E1,2.8E1,8.2E1,7.8E1,1.28E2,2.1E1,1.3E1,6.6E1,6.7E1,4.6E1,4.791E3,2.793E3,1.0879E4,8.57E2,4.8E1,4.7E1,6.7E1,5.1E1,2.6E1,2.62E2,1.5E1,1.9E1,5E1,5.84E2,7.908E3,4.78E2,4.31E2,2.405E3,7E1,1.64E2,2.14E2,1.3E1,1.5E1,1.7E1,1.2E1,8E0,1E1,9E0,9.9E2,1.139E3,2.633E3,1.5E1,6.19E2,1.2E1,9.6E1,1.5E1,8E0,4.3E1,8E0,8E0,3.8E1,2E1,7.92E2,6.72E2,3E1,1.1E1,1E1,1E1,8.6E1,1.5E1,3.5E1,4.68E2,1.298E3,1.1E1,2.1E1,2.1E1,1.25E2,2.449E3,5.051E3,4.972E3,1.898E3,3.6E1,8.44E2,9.89E2,3.77E2,9E0,8E2,2.2E1,8E0,1.5E1,4E2,2.2E2,7.3E1,6.6E1,7.4E1,1.842E3,1E1,2.42E2,8E0,9E0,1.27E2,1.736E3,1.243E3,8.57E2,6.6E1,1.107E3,1.39E2,3.2E1,8E0,2.2E1,1.7E2,1.1623E4,2.314E3,3.179E3,2.31E2,5.6E1,8.478E3,1.1806E4,2.128E3,5.64E2,1.685E3,4.6E2,1.483E3,2.3E1,4E2,4.6E1,6.354E3,7.142E3,3.906E3,1.601E3,3.872E3,4.779E3,1.172E3,1.075E3,2.03E3,1.06E2,1.656E3,6.3E1,1.951E3,1.68E2,3.15E3,2.06E2,5.71E2,1.1E1,3.1E1,3.2E1,8.02E2,8.01E2,2.94E2,3.01E2,1.2E1,9E0,9E0,1.1E1,6.89E2,1.063E3,2E1,1.8E1,1.15E2,1.5E1,2.9E2,3.56E2,1.3E1,1E1,2.63E2,2.9E1,3.77E2,3.0825E4,1.2337E4,1.131E3,2.858E3,4.923E3,5.973E3,5.76E2,2.0062E4,8.766E3,1.68E2,2.3E1,2.2E1,8E0,1.88E2,4.5E1,3.3E1,1.15E2,1E1,9E0,8E0,9E0,2.35E2,1E1,2E1,8E0,1.24E2,2.1E1,7.629E3,6.23E2,1.1957E4,3.917E3,4.633E3,2E1,2.71E2,1.47E2,1.324E3,5.3E1,1.2E1,1.2E1,8.5E1,4E1,3.13E2,3.205E3,2.163E3,1.33E2,3.5E2,1.05E2,8.8E2,9.25E2,3.26E2,4.5E1,3.7E1,7.02E2,7.1E1,1.2E1,8.996E3,1.276E3,1.107E3,9.18E2,9.11E3,7.71E2,2.6E1,6.7E1,1.654E3,3.4E1,2.8E1,5.5E1,4.4E1,8.2E1,1.044E3,2.3E1,9E1,3.8E1,2.06E2,1.5E1,2.4E2,3.83E2,6.1E1,2.1E1,3.8E1,4E1,2.8E1,1E2,8E0,1.3E1,5.5E1,1.1E1,4.695E3,9.6E1,2.712E3,8.1E1,4.776E3,6.103E3,8.01E2,5.6E1,1.9E1,2.9E1,3.9E1,8E0,5.6E1,1.1E1,4.1E1,1E1,1.3E1,1.3E1,9.2E1,1.7E2,1E1,9E0,2.3E1,2.7E1,5.54E2,3E1,7.709E3,1.99E2,4.42E2,3.6E1,4.16E2,1.5E1,2.319E3,8.6E1,2.1E1,4.9E1,4.5E1,1.19E2,1E2,1.14E2,8E0,9E0,9.58E2,3.2E1,1.112E3,2.7E1,1.109E3,1.524E3,5.85E2,3.4E1,6.3E1,3.3E1,2.5E1,1.8E1,2.1E1,1.7E1,7.72E2,2E1,5.96E2,7.6E1,1.7E1,1.3E1,7.6E1,1E1,8E0,2.7E1,4.14E2,5.4E1,1.118E3,1.8E2,9E0,1.2E1,1.3E1,8E0,4.9E1,7.6E1,5E2,1.949E3,2.563E3,2.488E3,1.254E3,3.718E3,9.65E2,9.33E2,2.8E1,8E0,7.86E2,5.8E1,8.96E2,9.3E1,1.88E2,1.89E2,5.24E2,2.76E2,1.2E1,1E1,2.95E2,1.05E2,2.06E2,1.4E1,6.2E1,1.1E1,9E0,5.7E1,4.9E1,2.5E1,1.783E3,5.9E1,6.7E1,1.75E2,1.8E1,1.09E2,9.67E2,7.69E2,1.053E3,1.9E2,8.35E2,2.2E1,2.2E1,4.4E1,7.16E2,3.91E2,5.1E1,8.8E1,1E1,2.2E1,1.2E1,1E1,9.8E1,7.2E1,5.281E3,6.342E3,1.001E3,1.313E3,1.348E3,1.831E3,2.06E2,2.5E1,3E1,2.6E1,5.925E3,2.553E3,5.758E3,6.048E3,2.053E3,7.5E1,2.51E2,3.13E2,1.617E3,6.8E1,2.16E2,2.44E2,2.77E2,1.206E3,1E1,1.3E1,2.84E2,1.16E2,1.2E1,3.4E1,5.702E3,6.52E2,6.997E3,1.45E2,3.833E3,7.3E1,1.551E3,5E1,2.717E3,1.155E3,2.52E2,4.527E3,8.33E2,3.39E2,6.1E2,4.65E2,1.858E3,1.72E2,4.2E1,6.4E1,1.447E3,2.09E2,1.5E1,4.8E1,1.888E3,6.3E1,1E1,1.58E2,3.064E3,8.6E1,1.77E2,2.9E1,5.6E2,1.1E1,1.1E1,2E1,2E1,1.2E1,7.3E2,7.2E1,8.7E1,7.14E2,1.71E2,1.23E2,2.03E2,9.8E1,2.3E1,6.66E2,9.96E2,6.7E1,1.2E1,8E0,9E0,9E0,4E1,7.5E1,2.78E2,1.2E1,3.44E2,1.2E1,2.4E2,2.3E1,1E1,1.9E1],"tree_param":{"num_deleted":"0","num_feature":"144","num_nodes":"767","size_leaf_vector":"1"}},{"base_weights":[-1.288031E-3,3.430911E-1,-4.420384E-1,5.4512E-1,1.6959101E-1,-1.6348585E-1,-5.824892E-1,3.8665736E-1,7.258378E-1,1.0042497E-1,7.3675126E-1,-2.5473776E-1,3.0040422E-1,-6.3509196E-1,1.35742E-1,3.4250396E-1,9.423575E-1,7.3253655E-1,-8.020595E0,1.1119655E-1,-3.1623147E0,6.856206E-1,1.0116497E0,-2.947518E-1,4.5962426E-1,5.835323E-1,1.5920512E-1,-3.7142035E-1,-7.7823424E-1,3.3682784E-1,-2.3897799E-2,-3.7608767E-1,3.790588E-1,9.601864E-1,4.5829388E-1,7.391758E-1,-1.6550677E0,-1.1702322E0,-1.1702322E0,7.050546E-2,8.0252624E-1,6.73428E-1,-7.7591176E0,7.6627475E-1,5.188821E-1,1.022194E0,4.7457102E-1,-6.912405E-2,-3.8410082E-1,4.005294E-1,8.5672367E-1,7.965861E-1,4.388889E-1,7.445241E-2,6.040781E-1,-4.84444E-1,-7.619608E-2,-6.158047E-1,-9.397755E-1,4.1949812E-1,-3.445084E-1,2.0323272E-1,-1.6103718E-1,-1.4182773E-1,-2.6640263E0,3.925352E-1,-1.6860483E0,1.1462672E0,9.0819556E-1,5.8365566E-1,-5.2632686E-2,8.048332E-1,5.4781246E-1,-1.6364413E-1,-1.3678997E0,2.2412208E-1,-1.0165285E-1,8.611189E-1,-4.0782977E-2,9.015401E-1,5.056214E-1,-8.112444E0,-3.7169585E-1,5.632412E-1,7.954046E-1,2.3896405E-1,5.8895457E-1,1.1407987E0,9.6593714E-1,9.215E-1,-1.1823282E-1,-3.6624044E-1,3.772982E-2,-4.1461876E-1,4.4993508E-1,-1.5075515E-1,4.310288E-1,9.4501996E-1,6.770863E-1,8.483366E-1,6.6301876E-1,-5.5722874E-1,4.7328523E-1,9.797415E-2,-6.2404114E-1,6.7718154E-1,-1.2004098E-1,-4.0698528E-1,-6.948754E-1,1.1289791E-1,-1.7576513E-1,-6.8859094E-1,-2.6151606E-1,-1.0214506E0,-6.861149E-1,4.3604326E-1,-9.1845185E-1,-1.5430641E-1,-7.9116255E-1,2.2030085E-1,-1.8467925E-1,-4.261357E-1,-7.628328E-2,-3.5015322E-2,-2.011607E0,-1.2889025E-1,-3.1914706E0,4.2768547E-1,-2.6561183E-1,6.2765646E-1,-2.3801596E0,1.1581378E0,8.608977E-2,9.239411E-1,1.5337314E-1,7.470778E-1,2.894958E-1,8.3632183E-1,3.735553E-1,6.949201E-1,4.418886E-1,6.3635033E-1,-3.2747335E0,3.1101966E-1,-2.791816E-2,-5.1032558E-2,-7.0279944E-1,-3.829837E-1,8.723461E-1,-2.633787E-1,3.5539657E-1,7.829423E-1,1.5853177E-1,3.0502674E-1,6.5406144E-1,-1.1702322E0,-8.591029E0,5.8003294E-1,-1.3954379E-1,8.270014E-1,6.279808E-1,-4.1255867E-1,3.0550826E-1,7.041592E-1,4.688499E-1,1.1500152E0,8.240172E-2,9.752147E-1,-1.8794643E-2,1.5299459E-1,1.1034205E-1,-3.8980672E-1,7.590498E-1,-8.649326E-1,8.940033E-2,-4.361217E-1,2.8474283E-1,5.7787627E-1,-6.8777865E-1,1.356287E-1,-2.448527E-1,3.472951E-1,6.148928E-1,1.0315E0,8.8844424E-1,7.090766E-1,7.445157E-2,8.6408836E-1,4.792209E-1,5.928038E-1,7.394292E-1,5.021227E-1,-1.8008152E0,5.513248E-1,1.0643784E-1,1.6637884E-1,-1.1620423E-1,-2.3013534E-2,-1.0729098E0,7.561677E-1,1.2685405E-1,-1.6581725E0,8.711993E-1,-2.736097E-1,-5.164363E-1,-5.8967906E-1,-8.860119E-1,2.4464509E-1,-2.0908011E-1,-2.8109404E-1,1.1939224E-1,-6.0978216E-1,-8.387991E-1,-2.0182559E-1,-4.5858243E-1,-9.061726E-1,-1.1204377E0,-5.197142E-1,-7.6663494E-1,4.0059365E-2,4.612154E-1,-1.10896274E-1,-1.0101488E0,1.1045409E-1,-5.405453E-1,-2.8539655E-1,-6.4370656E-1,2.3983179E-1,-5.4811954E-1,-4.824949E-1,9.532742E-2,4.8678745E-2,-2.204576E-1,2.8019076E-2,-2.3543947E0,9.099328E-2,-2.356701E0,-7.205065E-1,1.6246404E-1,-4.8837417E-1,-3.1714091E0,4.395774E-1,-1.386442E0,6.1825424E-1,-6.8446386E-1,5.086041E-1,1.6421603E-1,-1.9037856E0,-4.285656E0,1.1393746E0,1.3079855E0,9.400251E-1,2.134604E-1,4.3880424E-1,-1.627129E-1,9.9055797E-1,4.9574345E-1,7.945255E-1,-1.8747671E-1,8.06661E-1,9.844563E-1,4.2452213E-1,-8.864287E-1,6.538404E-1,9.4333386E-1,4.9943444E-1,3.1460223E-1,7.3298067E-1,3.7697414E-1,-3.846951E-1,-5.7089454E-1,3.589087E-1,-3.8558304E-1,6.994791E-2,-2.0874974E-1,8.770481E-2,-2.1346083E-1,-2.6773974E-2,-1.3006868E0,4.571531E-1,9.180428E-1,-2.4317957E-2,-4.702582E-1,3.7810605E-2,3.6730358E-1,7.444354E-2,1.2617108E-1,3.8258195E-1,3.4855127E-3,7.147111E-1,4.897253E-2,-1.3678997E0,-1.1702322E0,6.127206E-1,3.5265583E-1,8.7721336E-1,7.827744E-1,6.432165E-1,2.3185278E-1,4.232859E-1,8.755891E-2,9.131504E-1,6.462348E-1,5.482688E-1,3.6505818E-1,1.1584405E0,9.2191175E-2,9.955386E-1,7.323194E-1,-3.6065292E-1,-7.166221E-1,6.599767E-1,9.121627E-1,-7.6273996E-1,-5.826798E-1,4.7731975E-1,1.7098097E-2,-3.2014784E-1,-5.259945E-1,3.7724653E-1,-7.035202E-2,6.523668E-1,-2.9538178E-1,-1.8748796E-1,-4.5163348E-1,4.434793E-2,8.969667E-4,-1.3840224E-1,-5.523763E-1,1.4408925E-1,3.8882622E-1,6.9175065E-1,4.9161574E-1,1.0786201E0,1.22999474E-1,8.0095804E-1,9.1652626E-1,7.284101E-1,8.3397485E-2,8.7926155E-1,6.190969E-1,5.143726E-2,5.5256057E-1,6.2300265E-1,5.2368194E-1,7.393137E-1,1.0807662E-1,4.5587253E-2,1.20307505E-1,7.143958E-2,-4.775781E-1,5.1080495E-1,9.351971E-1,3.1161433E-1,-1.2211748E0,3.1542867E-1,1.2365204E-1,-7.918887E-2,-5.3251284E-1,2.0792957E-1,-1.9055435E-1,-1.2573584E0,-3.4664378E-1,8.218497E-1,4.090836E-1,-5.014066E-3,1.17273815E-1,8.036154E-2,-2.4996803E0,7.3990935E-1,1.008457E0,-2.9426527E-1,4.2344043E-1,-5.782001E-1,-1.419836E-1,-6.138762E-1,-8.604067E-2,-7.292051E-1,-9.9792385E-1,1.3209201E-1,4.6019638E-1,-1.4432201E-1,-1.3113759E0,-3.4652835E-1,1.0351542E-1,-1.0984689E0,1.7568369E-1,-6.328494E-1,-1.05865665E-1,-7.6982325E-1,-1.020148E0,-9.846777E-2,-2.8616306E-1,-3.0892652E-1,-5.5340946E-1,-9.626668E-1,-6.2345546E-1,-1.0103526E0,-1.2368728E0,-5.481264E-1,8.124721E-2,-6.629038E-1,-8.805471E-1,2.070905E-1,-1.6610199E-1,6.9283617E-1,3.9784622E-1,-1.1896743E-1,-1.7295921E-1,2.493852E-2,1.442886E-1,-1.8036255E-1,-4.477943E-1,-4.2143133E-1,-1.2576095E0,2.5184634E-1,-6.379377E-1,-3.7112907E-1,-1.5744306E-1,-4.2917675E-1,-1.0064037E0,-1.8935151E-2,5.3587794E-1,-1.874495E-1,-7.855248E-1,1.6957259E-2,-2.2531255E-1,-5.03554E-1,3.8119033E-2,-3.3279514E-1,-3.5932848E-1,-1.5979609E-1,-5.5422813E-2,-4.5879057E-1,-4.7006473E-1,5.7541348E-2,1.2972894E-1,-1.3526428E-1,-6.411749E-1,1.03369996E-1,-2.8341818E-1,-1.8821587E-1,-2.867077E-2,1.0256131E-1,6.303723E-2,-3.1822866E-1,1.21049225E-1,-6.246704E-1,-6.256544E-1,1.682293E-1,1.3847208E-1,1.8051888E-1,1.9307572E-1,8.5901216E-2,1.3995314E-1,1.17334835E-1,-2.5615618E-1,1.2214016E-1,-1.1032831E-1,1.7233862E-1,1.1998507E-1,-3.9043162E-2,1.1789268E-1,3.5383824E-2,1.8751523E-1,-2.360986E-1,1.3964258E-1,1.2491528E-1,1.0344014E-1,1.545556E-1,1.3531676E-1,7.595751E-2,-2.3706229E-1,9.94649E-2,5.4293916E-2,1.3442893E-1,1.6269733E-1,7.040281E-2,1.2610567E-1,4.851268E-2,-1.0421245E-3,9.4864435E-2,1.3110429E-1,8.070627E-2,1.965819E-2,7.256142E-2,3.575797E-2,1.6558627E-2,-4.494205E-1,2.298304E-2,-3.335074E-2,-2.9387925E-2,-4.3254307E-1,1.54519845E-2,-2.0008841E-1,-3.647577E-2,6.0695957E-2,5.9401255E-2,-2.3747293E-2,-1.5605353E-1,-4.615273E-1,1.6090605E-1,3.7867505E-2,1.3676475E-1,2.7458979E-2,1.4590161E-2,-1.4049157E-2,-3.863721E-2,-1.6333349E-1,5.942476E-2,5.097865E-2,1.7943485E-2,8.255638E-2,9.519544E-2,1.2244553E-1,9.974671E-2,7.7540904E-2,2.70896E-2,7.143225E-2,1.3032271E-1,8.7669164E-2,1.1599277E-1,4.7017984E-2,1.1274662E-1,8.8970296E-2,-9.122953E-2,7.930362E-2,5.8531895E-2,9.3637355E-2,-8.501864E-2,2.1565598E-2,1.2389374E-1,1.7695077E-1,9.664051E-2,1.820163E-4,8.2603306E-2,8.365086E-3,5.560665E-2,-6.911483E-2,1.763743E-1,1.606434E-1,1.6249841E-1,1.4150338E-1,9.227965E-2,1.3822569E-1,-4.956161E-2,-1.0477904E-1,-9.050411E-2,-4.7521883E-1,9.2111625E-2,1.0632782E-1,1.6406095E-1,1.15388654E-1,-1.2037092E-1,1.0560714E-1,-7.534954E-2,7.497317E-2,2.1328485E-2,-1.6539369E-2,-7.3851705E-2,-3.4990177E-2,-7.0717625E-2,-1.6635966E-1,4.8673086E-2,1.1400488E-1,-3.5605188E-3,-1.19019695E-1,9.9736206E-2,1.0764764E-2,-5.6231346E-2,1.4911867E-2,6.557882E-2,-1.8998955E-1,-3.2182932E-2,1.577535E-2,-5.398932E-2,-1.0719785E-1,2.7236069E-2,-6.6436134E-2,6.5684944E-2,4.5945264E-2,7.878712E-2,1.097091E-1,7.794417E-2,2.5628284E-2,1.3247946E-1,1.6278629E-1,1.3072313E-1,1.0498198E-1,1.388558E-1,1.266308E-1,1.0941475E-1,9.116182E-2,1.2210014E-1,1.3657321E-1,1.2065779E-1,7.624682E-2,8.377959E-2,7.7110365E-2,1.0897515E-1,8.781693E-2,7.075839E-2,7.952346E-2,1.07854165E-1,1.0807661E-1,8.476883E-2,3.2844443E-2,1.5254484E-1,-7.682845E-2,1.8714039E-2,6.989094E-2,-2.8515356E-2,-4.5254698E-1,5.156281E-2,2.1372613E-2,-1.3513702E-1,1.9903801E-2,-3.055539E-2,-3.8830738E-3,-4.8003085E-2,-1.745863E-1,6.395508E-2,-4.1099448E-2,-1.2902437E-2,-2.0826024E-1,-1.2456827E-2,-8.869619E-2,1.055346E-3,1.22386836E-1,6.8497024E-2,-2.1368278E-2,2.1099484E-2,-6.295007E-2,-2.9828236E-1,-4.1453412E-1,9.547059E-2,1.17558934E-1,1.7092055E-1,1.3067201E-1,-4.7692947E-2,1.6983388E-2,-4.982546E-3,7.600331E-2,-7.990897E-2,-1.6347289E-1,-1.08525185E-2,-2.1631163E-1,-9.598727E-2,-5.419483E-2,-6.1393296E-3,-6.743151E-2,-2.4383983E-1,-9.968882E-2,-1.4707917E-1,3.1100748E-2,4.3273605E-2,2.47509E-3,8.0987886E-2,-1.1525041E-2,-1.7201623E-2,-2.3283145E-1,-9.311701E-2,-5.9511614E-1,-6.821297E-2,-1.9555984E-2,4.8299532E-2,-1.9137666E-2,-1.9622709E-1,8.693197E-2,1.710612E-2,9.257323E-2,-9.167466E-2,-4.6898332E-1,-3.0402973E-2,2.8880386E-2,-1.2656134E-1,-9.862441E-2,-1.5091057E-1,-3.6404815E-2,-1.1432542E-2,-1.3286506E-1,-4.4891953E-2,2.3355208E-2,-5.241263E-2,6.0239495E-3,-7.8872696E-2,-2.173742E-1,-1.2101802E-1,-1.5813181E-1,-1.0497709E-1,-1.93551E-2,-1.4011005E-1,-1.7097113E-1,-1.7762074E-1,-3.1033018E-1,-6.504761E-2,-9.69729E-2,-3.5561938E-2,5.1367734E-2,-9.227414E-2,-1.740216E-1,-1.342336E-1,-6.233244E-2,4.3820808E-4,1.3084096E-1,1.1525776E-1,-3.9044194E-2,4.8001472E-2,8.8984996E-2,1.652E-2,-1.04779705E-1,-3.7155572E-2,-9.277231E-2,-9.54407E-2,-1.6673398E-3,-1.1370705E-1,-2.7653283E-1,-1.4484378E-3,4.2433664E-2,-5.990121E-2,-1.22567154E-1,-7.450897E-2,-3.692133E-2,-5.5480827E-2,-1.5629844E-1,-1.1808466E-1,-2.6504484E-1,-1.0133264E-2,8.618371E-2,2.8394496E-2,9.416903E-2,-8.720042E-3,-5.0841417E-2,8.001178E-3,-3.598346E-1],"categories":[],"categories_nodes":[],"categories_segments":[],"categories_sizes":[],"default_left":[0,0,0,0,0,0,0,0,0,0,0,0,0,0,0,0,0,0,0,0,0,0,0,0,0,0,0,0,0,0,0,0,0,0,0,0,0,0,0,0,0,0,0,0,0,0,0,0,0,0,0,0,0,0,0,0,0,0,0,0,0,0,0,0,0,0,0,0,0,0,0,0,0,0,0,0,0,0,0,0,0,0,0,0,0,0,0,0,0,0,0,0,0,0,0,0,0,0,0,0,0,0,0,0,0,0,0,0,0,0,0,0,0,0,0,0,0,0,0,0,0,0,0,0,0,0,0,0,0,0,0,0,0,0,0,0,0,0,0,0,0,0,0,0,0,0,0,0,0,0,0,0,0,0,0,0,0,0,0,0,0,0,0,0,0,0,0,0,0,0,0,0,0,0,0,0,0,0,0,0,0,0,0,0,0,0,0,0,0,0,0,0,0,0,0,0,0,0,0,0,0,0,0,0,0,0,0,0,0,0,0,0,0,0,0,0,0,0,0,0,0,0,0,0,0,0,0,0,0,0,0,0,0,0,0,0,0,0,0,0,0,0,0,0,0,0,0,0,0,0,0,0,0,0,0,0,0,0,0,0,0,0,0,0,0,0,0,0,0,0,0,0,0,0,0,0,0,0,0,0,0,0,0,0,0,0,0,0,0,0,0,0,0,0,0,0,0,0,0,0,0,0,0,0,0,0,0,0,0,0,0,0,0,0,0,0,0,0,0,0,0,0,0,0,0,0,0,0,0,0,0,0,0,0,0,0,0,0,0,0,0,0,0,0,0,0,0,0,0,0,0,0,0,0,0,0,0,0,0,0,0,0,0,0,0,0,0,0,0,0,0,0,0,0,0,0,0,0,0,0,0,0,0,0,0,0,0,0,0,0,0,0,0,0,0,0,0,0,0,0,0,0,0,0,0,0,0,0,0,0,0,0,0,0,0,0,0,0,0,0,0,0,0,0,0,0,0,0,0,0,0,0,0,0,0,0,0,0,0,0,0,0,0,0,0,0,0,0,0,0,0,0,0,0,0,0,0,0,0,0,0,0,0,0,0,0,0,0,0,0,0,0,0,0,0,0,0,0,0,0,0,0,0,0,0,0,0,0,0,0,0,0,0,0,0,0,0,0,0,0,0,0,0,0,0,0,0,0,0,0,0,0,0,0,0,0,0,0,0,0,0,0,0,0,0,0,0,0,0,0,0,0,0,0,0,0,0,0,0,0,0,0,0,0,0,0,0,0,0,0,0,0,0,0,0,0,0,0,0,0,0,0,0,0,0,0,0,0,0,0,0,0,0,0,0,0,0,0,0,0,0,0,0,0,0,0,0,0,0,0,0,0,0,0,0,0,0,0,0,0,0,0,0,0,0,0,0,0,0,0,0,0,0,0,0,0,0,0,0,0,0,0,0,0,0,0,0,0,0,0,0,0,0,0,0,0,0,0,0,0,0,0,0,0,0,0,0,0,0,0,0,0,0,0,0,0,0,0,0,0,0,0,0,0,0,0,0,0,0,0,0,0,0,0,0,0,0,0,0,0,0,0,0,0,0,0,0,0,0,0,0,0,0,0,0,0,0,0,0,0,0,0,0,0,0,0,0,0,0,0,0,0,0,0,0,0,0,0,0,0,0,0,0,0,0,0,0,0,0,0,0,0,0,0,0],"id":1,"left_children":[1,3,5,7,9,11,13,15,17,19,21,23,25,27,29,31,33,35,37,39,41,43,45,47,49,51,53,55,57,59,61,63,65,67,69,71,73,-1,-1,75,77,79,81,83,85,87,89,91,93,95,97,99,101,103,105,107,109,111,113,115,117,119,121,123,125,127,129,131,133,135,-1,137,139,141,-1,143,145,147,149,151,153,155,-1,157,159,161,163,165,167,169,-1,171,173,175,177,179,181,183,185,187,189,191,193,195,197,199,201,203,205,207,209,211,213,215,217,219,221,223,225,227,-1,229,231,233,235,237,239,241,243,245,247,249,-1,251,253,255,257,259,261,263,265,267,269,271,273,275,277,-1,279,281,283,285,-1,287,289,-1,291,293,-1,295,297,-1,299,301,303,305,-1,307,-1,-1,-1,309,311,313,315,317,319,321,323,325,327,329,331,333,335,337,-1,339,341,343,345,347,349,351,353,355,357,359,361,363,365,367,369,371,373,375,377,379,381,383,385,387,389,391,393,395,397,399,401,403,405,-1,407,409,411,-1,413,415,417,419,-1,421,423,425,427,-1,429,431,-1,-1,433,435,437,439,441,443,-1,445,447,449,451,453,455,457,-1,459,461,463,465,467,469,471,-1,473,475,477,479,481,483,-1,-1,485,487,489,491,493,495,497,499,501,503,505,507,-1,509,-1,-1,511,-1,513,-1,-1,-1,515,517,519,521,523,525,527,529,531,533,535,537,539,-1,541,543,545,547,549,551,553,-1,555,557,559,561,563,565,567,569,571,-1,-1,-1,573,575,577,579,581,583,585,-1,587,589,591,-1,593,595,-1,597,599,601,603,-1,-1,-1,-1,-1,605,607,609,611,613,615,617,619,621,-1,623,625,627,629,631,-1,-1,633,635,637,639,641,643,645,647,649,651,653,655,657,659,661,663,665,667,669,671,673,675,677,679,681,683,685,687,689,691,693,695,697,699,701,703,-1,705,707,-1,-1,709,-1,-1,711,713,715,717,719,721,-1,723,725,727,729,731,733,-1,-1,-1,-1,-1,-1,-1,-1,-1,-1,-1,-1,-1,-1,-1,-1,-1,-1,-1,-1,-1,-1,-1,-1,-1,-1,-1,-1,-1,-1,-1,-1,-1,-1,-1,-1,-1,-1,-1,-1,-1,-1,-1,-1,-1,-1,-1,-1,-1,-1,-1,-1,-1,-1,-1,-1,-1,-1,-1,-1,-1,-1,-1,-1,-1,-1,-1,-1,-1,-1,-1,-1,-1,-1,-1,-1,-1,-1,-1,-1,-1,-1,-1,-1,-1,-1,-1,-1,-1,-1,-1,-1,-1,-1,-1,-1,-1,-1,-1,-1,-1,-1,-1,-1,-1,-1,-1,-1,-1,-1,-1,-1,-1,-1,-1,-1,-1,-1,-1,-1,-1,-1,-1,-1,-1,-1,-1,-1,-1,-1,-1,-1,-1,-1,-1,-1,-1,-1,-1,-1,-1,-1,-1,-1,-1,-1,-1,-1,-1,-1,-1,-1,-1,-1,-1,-1,-1,-1,-1,-1,-1,-1,-1,-1,-1,-1,-1,-1,-1,-1,-1,-1,-1,-1,-1,-1,-1,-1,-1,-1,-1,-1,-1,-1,-1,-1,-1,-1,-1,-1,-1,-1,-1,-1,-1,-1,-1,-1,-1,-1,-1,-1,-1,-1,-1,-1,-1,-1,-1,-1,-1,-1,-1,-1,-1,-1,-1,-1,-1,-1,-1,-1,-1,-1,-1,-1,-1,-1,-1,-1,-1,-1,-1,-1,-1,-1,-1,-1,-1,-1,-1,-1,-1,-1,-1,-1,-1,-1,-1,-1,-1,-1,-1,-1,-1,-1,-1,-1,-1,-1,-1,-1,-1,-1,-1,-1,-1,-1,-1,-1,-1,-1,-1,-1,-1,-1,-1,-1,-1,-1,-1,-1,-1,-1,-1,-1,-1,-1,-1,-1,-1,-1,-1,-1,-1,-1,-1,-1,-1,-1,-1,-1,-1,-1,-1,-1,-1,-1,-1,-1],"loss_changes":[4.7467492E4,6.153629E3,5.3665273E3,2.322748E3,3.7049888E3,1.9463729E3,3.4452852E3,1.0603506E3,2.2202031E3,2.9585303E3,1.4429639E2,1.0982734E3,3.021493E2,3.2069102E3,1.9976642E2,1.0516396E3,2.7453125E1,6.0023047E2,2.4414062E-4,2.3602998E3,4.8841064E3,1.1640674E2,9.117676E0,7.334878E2,4.78248E1,7.750433E1,1.9014227E2,9.97583E2,1.4450117E3,1.5512253E2,1.0805428E2,1.0387144E3,1.0602471E3,2.9681396E1,1.1602287E1,4.744336E2,1.2089963E3,0E0,0E0,2.095611E3,2.304563E2,5.7800827E0,2.3201465E2,3.450464E1,5.5352295E1,1.0535522E1,1.7802322E1,3.2767148E2,6.633833E2,2.9827759E1,4.187393E0,7.029663E0,5.1325684E1,6.959658E1,4.2718994E1,3.5240088E2,1.558386E2,7.0811914E2,5.7203906E2,5.43674E1,2.5316444E1,3.274535E1,4.8598564E1,3.511001E2,2.4068591E2,8.7562354E2,3.9667426E2,4.423706E0,2.850061E1,4.7110786E0,0E0,3.8179883E2,1.5030615E2,2.1901918E2,0E0,9.1713306E2,1.1370251E3,1.7068188E2,2.6720926E1,1.4042931E0,2.5905342E0,5.1875E0,0E0,1.867891E1,2.6989502E1,1.1529562E2,3.1229248E1,2.6969604E0,1.0877869E1,4.8303032E-1,0E0,7.239667E1,3.5405203E2,3.781089E2,1.3391562E2,2.5061653E0,2.5880005E1,8.659973E-1,4.6424866E-1,4.261841E0,1.5237045E0,6.586976E1,4.1454224E1,6.0039E1,3.7229984E1,3.1862244E1,1.12824684E2,2.3069336E2,1.1696167E2,1.21108246E2,1.6856247E2,2.6966406E2,5.505081E1,2.3833008E2,9.0105225E1,2.4181763E1,4.3570518E-1,2.1372505E1,1.5287689E1,1.9375294E1,0E0,3.187989E1,2.9528742E1,2.4313174E2,8.6394135E1,2.2785639E1,4.6557617E-1,7.7515576E2,7.104313E2,3.378439E0,1.7246863E2,1.8444824E0,0E0,2.6842896E1,1.7742556E1,3.8552818E0,8.430985E0,1.1512109E2,6.287751E2,4.1206665E1,4.1077515E1,1.7544537E0,7.3289185E0,1.0387861E3,1.8999797E2,7.7661926E2,1.172951E3,0E0,8.247534E1,9.594613E0,1.2491703E-1,8.7018585E-1,0E0,8.06736E-1,9.655781E-1,0E0,8.500977E0,5.3810883E0,0E0,9.531494E0,4.8885803E0,0E0,1.4195267E1,1.394574E1,9.108536E0,2.1827393E0,0E0,5.2426147E0,0E0,0E0,0E0,2.547763E1,8.494873E-1,1.3140768E2,2.0138058E2,2.542456E2,2.4635689E1,5.37959E1,1.1202076E2,5.0128347E-1,2.291522E0,9.747467E0,4.9837494E0,6.2168884E-1,2.6287842E-1,1.9403458E-1,0E0,2.6132202E0,2.7871513E-1,3.0893707E-1,3.0517578E-5,1.6513176E0,7.756832E1,1.8572021E1,6.91883E1,1.9780312E1,1.5286535E1,1.7481934E1,1.0582748E1,1.4612976E1,8.212338E0,5.390683E1,8.1092453E-1,1.0255676E2,2.007478E2,4.572412E1,3.6237793E1,4.915271E1,5.9176178E1,1.0056592E2,9.775968E1,1.7367334E2,9.8055664E1,3.1311249E1,1.5440247E1,1.541128E2,1.440332E2,3.744464E1,5.355127E1,2.8542637E1,3.3479675E1,0E0,6.4865303E-1,9.315322E0,5.484251E0,0E0,1.0779976E1,1.3277435E1,3.0072613E0,1.3911064E1,0E0,2.8922583E1,1.41940155E1,2.2452328E2,1.2623967E2,0E0,6.752014E-1,2.6805315E0,0E0,0E0,1.7895508E-1,7.253384E2,3.233394E2,1.4255937E2,3.8471252E2,6.84371E-1,0E0,1.1521564E2,3.6621094E-4,1.5137329E0,7.913208E-2,1.5485718E1,6.0487732E1,1.9039627E1,0E0,1.0260124E0,7.3895307E0,4.6045847E0,2.9475702E1,1.0554785E2,1.8652832E1,3.737087E2,0E0,2.7212158E1,2.163208E0,2.3820557E1,1.0053558E1,6.9919586E-1,8.1085324E-1,0E0,0E0,4.590603E2,2.6937178E3,1.8211545E2,7.6148285E1,4.936031E2,3.651421E2,8.036435E1,6.6292676E2,5.4993256E1,5.5223877E1,8.0526847E-1,1.3871067E1,0E0,6.943989E-2,0E0,0E0,1.3795571E0,0E0,3.2556915E-1,0E0,0E0,0E0,3.6486816E0,2.0807743E0,8.886475E0,1.2844849E1,3.3773499E0,8.014532E0,1.7348175E0,7.834175E0,4.794403E0,9.3810425E0,5.495514E0,6.452919E0,1.4237671E0,0E0,2.9765015E0,1.7608109E0,1.8399658E1,5.358892E1,6.7014694E-2,5.6653786E-1,3.6838486E1,0E0,4.0954193E1,1.01914795E2,1.5914417E2,3.4867212E2,1.0495506E1,5.308718E0,1.3759979E1,2.3263745E0,5.4669693E1,0E0,0E0,0E0,1.0534184E0,5.984726E-1,5.002982E0,4.3506165E0,2.9589386E0,2.7190437E0,3.5442352E-1,0E0,2.0112228E-1,1.3850403E-1,1.425705E-1,0E0,1.5942688E0,8.2255936E-1,0E0,9.897232E-3,2.6950073E-1,3.721142E-2,1.5258789E-5,0E0,0E0,0E0,0E0,0E0,2.1656433E1,1.8384232E1,6.752762E0,6.55829E1,4.4396286E0,3.2352676E1,6.237609E0,1.0946659E1,5.640629E0,0E0,1.2521103E1,1.0921633E0,7.4516907E0,3.42169E0,4.9130816E0,0E0,0E0,3.264923E0,1.295414E-1,4.0469933E-1,9.2658936E1,9.143719E0,1.2328735E2,1.1137967E2,3.8193237E1,2.8440938E0,3.722888E1,1.4789917E1,2.520705E1,3.555574E1,3.0031664E1,8.5696144E1,8.780087E1,3.102273E1,2.630523E1,3.6545643E1,1.6689453E2,2.0368061E1,5.2032227E1,2.3587158E1,2.636214E1,1.8994385E1,7.434105E0,8.000427E0,1.2979688E2,7.574939E1,4.6684082E1,9.472266E1,2.4958557E1,8.71317E0,3.829309E1,3.8648193E1,1.787569E1,0E0,4.570758E1,2.6147675E1,0E0,0E0,7.413319E0,0E0,0E0,2.723981E0,5.5337696E0,6.40501E0,1.2675758E1,7.8129625E-1,3.954432E-1,0E0,1.4197197E1,7.3443794E0,2.3743917E1,3.9999905E0,1.4781439E1,5.932174E1,0E0,0E0,0E0,0E0,0E0,0E0,0E0,0E0,0E0,0E0,0E0,0E0,0E0,0E0,0E0,0E0,0E0,0E0,0E0,0E0,0E0,0E0,0E0,0E0,0E0,0E0,0E0,0E0,0E0,0E0,0E0,0E0,0E0,0E0,0E0,0E0,0E0,0E0,0E0,0E0,0E0,0E0,0E0,0E0,0E0,0E0,0E0,0E0,0E0,0E0,0E0,0E0,0E0,0E0,0E0,0E0,0E0,0E0,0E0,0E0,0E0,0E0,0E0,0E0,0E0,0E0,0E0,0E0,0E0,0E0,0E0,0E0,0E0,0E0,0E0,0E0,0E0,0E0,0E0,0E0,0E0,0E0,0E0,0E0,0E0,0E0,0E0,0E0,0E0,0E0,0E0,0E0,0E0,0E0,0E0,0E0,0E0,0E0,0E0,0E0,0E0,0E0,0E0,0E0,0E0,0E0,0E0,0E0,0E0,0E0,0E0,0E0,0E0,0E0,0E0,0E0,0E0,0E0,0E0,0E0,0E0,0E0,0E0,0E0,0E0,0E0,0E0,0E0,0E0,0E0,0E0,0E0,0E0,0E0,0E0,0E0,0E0,0E0,0E0,0E0,0E0,0E0,0E0,0E0,0E0,0E0,0E0,0E0,0E0,0E0,0E0,0E0,0E0,0E0,0E0,0E0,0E0,0E0,0E0,0E0,0E0,0E0,0E0,0E0,0E0,0E0,0E0,0E0,0E0,0E0,0E0,0E0,0E0,0E0,0E0,0E0,0E0,0E0,0E0,0E0,0E0,0E0,0E0,0E0,0E0,0E0,0E0,0E0,0E0,0E0,0E0,0E0,0E0,0E0,0E0,0E0,0E0,0E0,0E0,0E0,0E0,0E0,0E0,0E0,0E0,0E0,0E0,0E0,0E0,0E0,0E0,0E0,0E0,0E0,0E0,0E0,0E0,0E0,0E0,0E0,0E0,0E0,0E0,0E0,0E0,0E0,0E0,0E0,0E0,0E0,0E0,0E0,0E0,0E0,0E0,0E0,0E0,0E0,0E0,0E0,0E0,0E0,0E0,0E0,0E0,0E0,0E0,0E0,0E0,0E0,0E0,0E0,0E0,0E0,0E0,0E0,0E0,0E0,0E0,0E0,0E0,0E0,0E0,0E0,0E0,0E0,0E0,0E0,0E0,0E0,0E0,0E0,0E0,0E0,0E0,0E0,0E0,0E0,0E0,0E0,0E0,0E0,0E0,0E0,0E0,0E0,0E0,0E0,0E0,0E0,0E0,0E0,0E0,0E0,0E0,0E0,0E0,0E0,0E0,0E0,0E0,0E0,0E0,0E0,0E0,0E0,0E0,0E0,0E0,0E0],"parents":[2147483647,0,0,1,1,2,2,3,3,4,4,5,5,6,6,7,7,8,8,9,9,10,10,11,11,12,12,13,13,14,14,15,15,16,16,17,17,18,18,19,19,20,20,21,21,22,22,23,23,24,24,25,25,26,26,27,27,28,28,29,29,30,30,31,31,32,32,33,33,34,34,35,35,36,36,39,39,40,40,41,41,42,42,43,43,44,44,45,45,46,46,47,47,48,48,49,49,50,50,51,51,52,52,53,53,54,54,55,55,56,56,57,57,58,58,59,59,60,60,61,61,62,62,63,63,64,64,65,65,66,66,67,67,68,68,69,69,71,71,72,72,73,73,75,75,76,76,77,77,78,78,79,79,80,80,81,81,83,83,84,84,85,85,86,86,87,87,88,88,89,89,91,91,92,92,93,93,94,94,95,95,96,96,97,97,98,98,99,99,100,100,101,101,102,102,103,103,104,104,105,105,106,106,107,107,108,108,109,109,110,110,111,111,112,112,113,113,114,114,115,115,116,116,117,117,118,118,119,119,121,121,122,122,123,123,124,124,125,125,126,126,127,127,128,128,129,129,130,130,131,131,133,133,134,134,135,135,136,136,137,137,138,138,139,139,140,140,141,141,142,142,143,143,144,144,145,145,146,146,148,148,149,149,150,150,151,151,153,153,154,154,156,156,157,157,159,159,160,160,162,162,163,163,164,164,165,165,167,167,171,171,172,172,173,173,174,174,175,175,176,176,177,177,178,178,179,179,180,180,181,181,182,182,183,183,184,184,185,185,187,187,188,188,189,189,190,190,191,191,192,192,193,193,194,194,195,195,196,196,197,197,198,198,199,199,200,200,201,201,202,202,203,203,204,204,205,205,206,206,207,207,208,208,209,209,210,210,211,211,212,212,213,213,214,214,215,215,216,216,217,217,218,218,219,219,220,220,222,222,223,223,224,224,226,226,227,227,228,228,229,229,231,231,232,232,233,233,234,234,236,236,237,237,240,240,241,241,242,242,243,243,244,244,245,245,247,247,248,248,249,249,250,250,251,251,252,252,253,253,255,255,256,256,257,257,258,258,259,259,260,260,261,261,263,263,264,264,265,265,266,266,267,267,268,268,271,271,272,272,273,273,274,274,275,275,276,276,277,277,278,278,279,279,280,280,281,281,282,282,284,284,287,287,289,289,293,293,294,294,295,295,296,296,297,297,298,298,299,299,300,300,301,301,302,302,303,303,304,304,305,305,307,307,308,308,309,309,310,310,311,311,312,312,313,313,315,315,316,316,317,317,318,318,319,319,320,320,321,321,322,322,323,323,327,327,328,328,329,329,330,330,331,331,332,332,333,333,335,335,336,336,337,337,339,339,340,340,342,342,343,343,344,344,345,345,351,351,352,352,353,353,354,354,355,355,356,356,357,357,358,358,359,359,361,361,362,362,363,363,364,364,365,365,368,368,369,369,370,370,371,371,372,372,373,373,374,374,375,375,376,376,377,377,378,378,379,379,380,380,381,381,382,382,383,383,384,384,385,385,386,386,387,387,388,388,389,389,390,390,391,391,392,392,393,393,394,394,395,395,396,396,397,397,398,398,399,399,400,400,401,401,402,402,403,403,405,405,406,406,409,409,412,412,413,413,414,414,415,415,416,416,417,417,419,419,420,420,421,421,422,422,423,423,424,424],"right_children":[2,4,6,8,10,12,14,16,18,20,22,24,26,28,30,32,34,36,38,40,42,44,46,48,50,52,54,56,58,60,62,64,66,68,70,72,74,-1,-1,76,78,80,82,84,86,88,90,92,94,96,98,100,102,104,106,108,110,112,114,116,118,120,122,124,126,128,130,132,134,136,-1,138,140,142,-1,144,146,148,150,152,154,156,-1,158,160,162,164,166,168,170,-1,172,174,176,178,180,182,184,186,188,190,192,194,196,198,200,202,204,206,208,210,212,214,216,218,220,222,224,226,228,-1,230,232,234,236,238,240,242,244,246,248,250,-1,252,254,256,258,260,262,264,266,268,270,272,274,276,278,-1,280,282,284,286,-1,288,290,-1,292,294,-1,296,298,-1,300,302,304,306,-1,308,-1,-1,-1,310,312,314,316,318,320,322,324,326,328,330,332,334,336,338,-1,340,342,344,346,348,350,352,354,356,358,360,362,364,366,368,370,372,374,376,378,380,382,384,386,388,390,392,394,396,398,400,402,404,406,-1,408,410,412,-1,414,416,418,420,-1,422,424,426,428,-1,430,432,-1,-1,434,436,438,440,442,444,-1,446,448,450,452,454,456,458,-1,460,462,464,466,468,470,472,-1,474,476,478,480,482,484,-1,-1,486,488,490,492,494,496,498,500,502,504,506,508,-1,510,-1,-1,512,-1,514,-1,-1,-1,516,518,520,522,524,526,528,530,532,534,536,538,540,-1,542,544,546,548,550,552,554,-1,556,558,560,562,564,566,568,570,572,-1,-1,-1,574,576,578,580,582,584,586,-1,588,590,592,-1,594,596,-1,598,600,602,604,-1,-1,-1,-1,-1,606,608,610,612,614,616,618,620,622,-1,624,626,628,630,632,-1,-1,634,636,638,640,642,644,646,648,650,652,654,656,658,660,662,664,666,668,670,672,674,676,678,680,682,684,686,688,690,692,694,696,698,700,702,704,-1,706,708,-1,-1,710,-1,-1,712,714,716,718,720,722,-1,724,726,728,730,732,734,-1,-1,-1,-1,-1,-1,-1,-1,-1,-1,-1,-1,-1,-1,-1,-1,-1,-1,-1,-1,-1,-1,-1,-1,-1,-1,-1,-1,-1,-1,-1,-1,-1,-1,-1,-1,-1,-1,-1,-1,-1,-1,-1,-1,-1,-1,-1,-1,-1,-1,-1,-1,-1,-1,-1,-1,-1,-1,-1,-1,-1,-1,-1,-1,-1,-1,-1,-1,-1,-1,-1,-1,-1,-1,-1,-1,-1,-1,-1,-1,-1,-1,-1,-1,-1,-1,-1,-1,-1,-1,-1,-1,-1,-1,-1,-1,-1,-1,-1,-1,-1,-1,-1,-1,-1,-1,-1,-1,-1,-1,-1,-1,-1,-1,-1,-1,-1,-1,-1,-1,-1,-1,-1,-1,-1,-1,-1,-1,-1,-1,-1,-1,-1,-1,-1,-1,-1,-1,-1,-1,-1,-1,-1,-1,-1,-1,-1,-1,-1,-1,-1,-1,-1,-1,-1,-1,-1,-1,-1,-1,-1,-1,-1,-1,-1,-1,-1,-1,-1,-1,-1,-1,-1,-1,-1,-1,-1,-1,-1,-1,-1,-1,-1,-1,-1,-1,-1,-1,-1,-1,-1,-1,-1,-1,-1,-1,-1,-1,-1,-1,-1,-1,-1,-1,-1,-1,-1,-1,-1,-1,-1,-1,-1,-1,-1,-1,-1,-1,-1,-1,-1,-1,-1,-1,-1,-1,-1,-1,-1,-1,-1,-1,-1,-1,-1,-1,-1,-1,-1,-1,-1,-1,-1,-1,-1,-1,-1,-1,-1,-1,-1,-1,-1,-1,-1,-1,-1,-1,-1,-1,-1,-1,-1,-1,-1,-1,-1,-1,-1,-1,-1,-1,-1,-1,-1,-1,-1,-1,-1,-1,-1,-1,-1,-1,-1,-1,-1,-1,-1,-1,-1,-1,-1,-1,-1,-1,-1,-1,-1,-1,-1,-1,-1,-1,-1,-1,-1,-1,-1,-1],"split_conditions":[-7.3208146E-2,-2.8135905E-1,2.724573E-1,1E0,1E0,1E0,1E0,1E0,1E0,1E0,1E0,1E0,-4.190499E-2,1.2220562E-1,2.8725147E-1,-5.324763E-1,1E0,1E0,-3.4058848E-1,1E0,1E0,5.877849E-2,1E0,-9.831075E-3,1E0,1E0,1E0,1E0,7.3334455E-1,1.8855627E0,7.3334455E-1,1E0,1E0,-8.7976086E-1,-3.215697E-1,1E0,1E0,-1.1702322E0,-1.1702322E0,1E0,1E0,4.1923225E-3,1E0,1E0,1E0,-6.3871173E-3,1E0,1E0,1E0,1E0,3.4226677E-1,1E0,-5.3681153E-1,1E0,1E0,1E0,8.4856635E-1,1E0,1E0,1E0,1E0,1E0,1E0,1E0,1E0,1E0,1E0,1E0,1E0,1E0,-5.2632686E-2,1E0,-7.64539E-1,1E0,-1.3678997E0,1E0,1E0,-2.765562E-1,1E0,1E0,1E0,-3.0365178E-1,-3.7169585E-1,1E0,-1.8842995E-1,6.2525034E-2,-3.0365178E-1,1E0,1E0,1E0,-1.1823282E-1,1E0,-5.1229674E-1,1E0,1E0,9.5974326E-2,1E0,3.0390603E-2,1E0,-1.4688516E-1,1E0,1E0,1.5723547E-1,4.1378665E-1,1E0,1.5723547E-1,6.719033E-2,1E0,7.3334455E-1,1E0,4.650886E0,1E0,5.623279E-1,1E0,9.6378815E-1,-4.5301774E-1,1E0,2.8073373E0,-4.8265448E-1,1E0,-1.8467925E-1,1E0,6.8126E-1,1E0,1E0,1E0,1E0,1E0,1E0,1E0,1E0,1E0,8.608977E-2,1E0,1E0,-4.208118E-1,-4.668541E-1,1E0,1E0,1E0,-5.340954E-1,1E0,-4.1738984E-1,1E0,1.2175041E-2,-3.2755945E-2,1E0,-3.829837E-1,-1.8037847E-1,-1.8842995E-1,1E0,-7.860018E-2,1.5853177E-1,3.1733385E-1,4.0342727E-1,-1.1702322E0,1E0,-1.8842995E-1,-1.3954379E-1,-1.498945E-1,1E0,-4.1255867E-1,2.9935485E-1,1E0,2.542423E-1,1E0,8.240172E-2,6.5959495E-1,-1.8794643E-2,1.5299459E-1,1.1034205E-1,1E0,1E0,1E0,-2.72243E-1,1E0,3.9178053E-1,1E0,1.5723547E-1,1E0,1E0,1E0,-1.8435465E-2,1E0,1.2220562E-1,1E0,7.445157E-2,1E0,1E0,-1.8529683E-1,1E0,1E0,-5.3797233E-1,1E0,1E0,6.2525034E-2,8.3190286E-1,3.9178053E-1,1E0,5.623279E-1,1E0,1E0,1E0,1E0,4.189999E0,1E0,1E0,1E0,1E0,1E0,1E0,1E0,4.5229736E-1,5.029009E-1,5.029009E-1,1E0,1.07901E0,1E0,4.5229736E-1,-4.5707786E-1,-1.3829727E-1,-1.10896274E-1,1E0,1E0,-4.668541E-1,-2.8539655E-1,2.6921153E0,1E0,4.5229736E-1,1E0,9.532742E-2,1E0,1E0,1E0,1E0,9.099328E-2,1E0,-5.3754324E-1,1.6246404E-1,-4.8837417E-1,1E0,1E0,1E0,1E0,1E0,-7.64539E-1,1.6421603E-1,1E0,1E0,1E0,1E0,1E0,1E0,1E0,-1.627129E-1,-8.7976086E-1,-8.7976086E-1,-4.9805877E-1,-3.8273022E-1,-6.493172E-1,1E0,1E0,-8.864287E-1,1E0,1E0,1E0,1E0,1E0,-3.9158216E-1,-3.846951E-1,-5.7089454E-1,-8.6852476E-2,1E0,1E0,1E0,1E0,1E0,1E0,1E0,1E0,1E0,-9.510478E-2,3.8818944E-2,3.7810605E-2,1E0,7.444354E-2,1.2617108E-1,2.0472856E-1,3.4855127E-3,2.1023008E-1,4.897253E-2,-1.3678997E0,-1.1702322E0,-9.510478E-2,-7.860018E-2,1E0,1E0,-1.618053E-1,-1.5287082E-1,1E0,3.117718E-1,1E0,1E0,1E0,1E0,-4.1887358E-1,9.2191175E-2,-5.340954E-1,1E0,1E0,1E0,1E0,-2.2989222E-1,1E0,-5.826798E-1,1E0,1E0,1E0,1E0,1E0,1.0024502E0,1E0,1E0,1E0,-4.5163348E-1,4.434793E-2,8.969667E-4,1E0,3.541776E-1,5.953371E-1,1.4312793E-1,-3.0122507E-1,4.221985E-1,-3.6442113E-1,1.22999474E-1,7.489247E-2,2.3773773E-1,7.823891E-1,8.3397485E-2,1E0,-3.9889368E-1,5.143726E-2,-1.04886495E-1,1E0,1E0,1E0,1.0807662E-1,4.5587253E-2,1.20307505E-1,7.143958E-2,-4.775781E-1,1E0,1E0,1E0,1E0,1.5723547E-1,6.719033E-2,1E0,1E0,1E0,-1.9055435E-1,1E0,2.934077E-1,-9.831075E-3,1E0,1E0,1.17273815E-1,8.036154E-2,5.877849E-2,1E0,2.2535929E-1,1E0,1E0,1E0,1E0,1E0,6.1812276E-1,-5.324763E-1,3.9595554E0,5.029009E-1,1E0,1E0,1E0,1E0,-1.6663565E-1,7.877097E0,8.337984E0,1E0,1E0,1E0,1E0,1E0,1E0,1E0,1E0,3.9728206E-1,1E0,5.623279E-1,1E0,4.5229736E-1,1E0,1E0,1E0,1E0,-1.6610199E-1,1.4246755E0,1E0,-1.1896743E-1,-1.7295921E-1,1E0,1.442886E-1,-1.8036255E-1,3.3834462E0,2.6291965E-2,1E0,1E0,3.7527594E-1,1E0,-1.5744306E-1,1E0,1.0024502E0,1E0,1E0,1E0,1E0,1.6957259E-2,-2.2531255E-1,-5.03554E-1,3.8119033E-2,-3.3279514E-1,-3.5932848E-1,-1.5979609E-1,-5.5422813E-2,-4.5879057E-1,-4.7006473E-1,5.7541348E-2,1.2972894E-1,-1.3526428E-1,-6.411749E-1,1.03369996E-1,-2.8341818E-1,-1.8821587E-1,-2.867077E-2,1.0256131E-1,6.303723E-2,-3.1822866E-1,1.21049225E-1,-6.246704E-1,-6.256544E-1,1.682293E-1,1.3847208E-1,1.8051888E-1,1.9307572E-1,8.5901216E-2,1.3995314E-1,1.17334835E-1,-2.5615618E-1,1.2214016E-1,-1.1032831E-1,1.7233862E-1,1.1998507E-1,-3.9043162E-2,1.1789268E-1,3.5383824E-2,1.8751523E-1,-2.360986E-1,1.3964258E-1,1.2491528E-1,1.0344014E-1,1.545556E-1,1.3531676E-1,7.595751E-2,-2.3706229E-1,9.94649E-2,5.4293916E-2,1.3442893E-1,1.6269733E-1,7.040281E-2,1.2610567E-1,4.851268E-2,-1.0421245E-3,9.4864435E-2,1.3110429E-1,8.070627E-2,1.965819E-2,7.256142E-2,3.575797E-2,1.6558627E-2,-4.494205E-1,2.298304E-2,-3.335074E-2,-2.9387925E-2,-4.3254307E-1,1.54519845E-2,-2.0008841E-1,-3.647577E-2,6.0695957E-2,5.9401255E-2,-2.3747293E-2,-1.5605353E-1,-4.615273E-1,1.6090605E-1,3.7867505E-2,1.3676475E-1,2.7458979E-2,1.4590161E-2,-1.4049157E-2,-3.863721E-2,-1.6333349E-1,5.942476E-2,5.097865E-2,1.7943485E-2,8.255638E-2,9.519544E-2,1.2244553E-1,9.974671E-2,7.7540904E-2,2.70896E-2,7.143225E-2,1.3032271E-1,8.7669164E-2,1.1599277E-1,4.7017984E-2,1.1274662E-1,8.8970296E-2,-9.122953E-2,7.930362E-2,5.8531895E-2,9.3637355E-2,-8.501864E-2,2.1565598E-2,1.2389374E-1,1.7695077E-1,9.664051E-2,1.820163E-4,8.2603306E-2,8.365086E-3,5.560665E-2,-6.911483E-2,1.763743E-1,1.606434E-1,1.6249841E-1,1.4150338E-1,9.227965E-2,1.3822569E-1,-4.956161E-2,-1.0477904E-1,-9.050411E-2,-4.7521883E-1,9.2111625E-2,1.0632782E-1,1.6406095E-1,1.15388654E-1,-1.2037092E-1,1.0560714E-1,-7.534954E-2,7.497317E-2,2.1328485E-2,-1.6539369E-2,-7.3851705E-2,-3.4990177E-2,-7.0717625E-2,-1.6635966E-1,4.8673086E-2,1.1400488E-1,-3.5605188E-3,-1.19019695E-1,9.9736206E-2,1.0764764E-2,-5.6231346E-2,1.4911867E-2,6.557882E-2,-1.8998955E-1,-3.2182932E-2,1.577535E-2,-5.398932E-2,-1.0719785E-1,2.7236069E-2,-6.6436134E-2,6.5684944E-2,4.5945264E-2,7.878712E-2,1.097091E-1,7.794417E-2,2.5628284E-2,1.3247946E-1,1.6278629E-1,1.3072313E-1,1.0498198E-1,1.388558E-1,1.266308E-1,1.0941475E-1,9.116182E-2,1.2210014E-1,1.3657321E-1,1.2065779E-1,7.624682E-2,8.377959E-2,7.7110365E-2,1.0897515E-1,8.781693E-2,7.075839E-2,7.952346E-2,1.07854165E-1,1.0807661E-1,8.476883E-2,3.2844443E-2,1.5254484E-1,-7.682845E-2,1.8714039E-2,6.989094E-2,-2.8515356E-2,-4.5254698E-1,5.156281E-2,2.1372613E-2,-1.3513702E-1,1.9903801E-2,-3.055539E-2,-3.8830738E-3,-4.8003085E-2,-1.745863E-1,6.395508E-2,-4.1099448E-2,-1.2902437E-2,-2.0826024E-1,-1.2456827E-2,-8.869619E-2,1.055346E-3,1.22386836E-1,6.8497024E-2,-2.1368278E-2,2.1099484E-2,-6.295007E-2,-2.9828236E-1,-4.1453412E-1,9.547059E-2,1.17558934E-1,1.7092055E-1,1.3067201E-1,-4.7692947E-2,1.6983388E-2,-4.982546E-3,7.600331E-2,-7.990897E-2,-1.6347289E-1,-1.08525185E-2,-2.1631163E-1,-9.598727E-2,-5.419483E-2,-6.1393296E-3,-6.743151E-2,-2.4383983E-1,-9.968882E-2,-1.4707917E-1,3.1100748E-2,4.3273605E-2,2.47509E-3,8.0987886E-2,-1.1525041E-2,-1.7201623E-2,-2.3283145E-1,-9.311701E-2,-5.9511614E-1,-6.821297E-2,-1.9555984E-2,4.8299532E-2,-1.9137666E-2,-1.9622709E-1,8.693197E-2,1.710612E-2,9.257323E-2,-9.167466E-2,-4.6898332E-1,-3.0402973E-2,2.8880386E-2,-1.2656134E-1,-9.862441E-2,-1.5091057E-1,-3.6404815E-2,-1.1432542E-2,-1.3286506E-1,-4.4891953E-2,2.3355208E-2,-5.241263E-2,6.0239495E-3,-7.8872696E-2,-2.173742E-1,-1.2101802E-1,-1.5813181E-1,-1.0497709E-1,-1.93551E-2,-1.4011005E-1,-1.7097113E-1,-1.7762074E-1,-3.1033018E-1,-6.504761E-2,-9.69729E-2,-3.5561938E-2,5.1367734E-2,-9.227414E-2,-1.740216E-1,-1.342336E-1,-6.233244E-2,4.3820808E-4,1.3084096E-1,1.1525776E-1,-3.9044194E-2,4.8001472E-2,8.8984996E-2,1.652E-2,-1.04779705E-1,-3.7155572E-2,-9.277231E-2,-9.54407E-2,-1.6673398E-3,-1.1370705E-1,-2.7653283E-1,-1.4484378E-3,4.2433664E-2,-5.990121E-2,-1.22567154E-1,-7.450897E-2,-3.692133E-2,-5.5480827E-2,-1.5629844E-1,-1.1808466E-1,-2.6504484E-1,-1.0133264E-2,8.618371E-2,2.8394496E-2,9.416903E-2,-8.720042E-3,-5.0841417E-2,8.001178E-3,-3.598346E-1],"split_indices":[143,142,143,113,125,103,92,125,97,97,92,125,142,142,142,142,68,135,142,92,50,142,113,142,92,111,92,103,143,143,143,39,62,143,142,115,6,0,0,126,39,142,13,114,114,142,54,102,92,102,142,114,142,78,45,115,143,103,103,39,13,39,114,6,45,78,102,110,63,140,0,50,143,50,0,115,50,142,113,127,127,143,0,109,143,142,143,110,72,33,0,97,142,127,45,142,38,142,79,142,130,140,143,142,140,143,142,126,143,126,143,115,142,126,143,142,111,143,142,26,0,29,142,75,140,62,111,71,140,127,133,14,0,55,33,142,142,103,34,124,143,115,142,50,142,142,114,0,142,143,140,142,0,142,142,0,126,143,0,142,135,0,142,94,142,68,0,142,0,0,0,30,114,95,142,126,142,39,143,140,101,114,142,7,142,75,0,126,112,142,84,135,142,92,45,142,142,142,117,142,131,127,127,32,143,23,126,7,27,119,105,125,142,143,143,38,143,23,142,142,142,0,126,34,142,0,143,117,142,26,0,78,134,55,117,0,102,142,0,0,126,127,133,96,102,143,0,124,114,116,140,105,103,7,0,143,143,142,142,143,125,10,0,21,0,23,93,41,142,0,0,142,113,121,36,62,103,115,113,140,4,142,142,0,126,0,0,142,0,142,0,0,0,142,142,75,55,142,142,14,142,14,68,63,68,143,0,143,130,78,134,126,142,92,0,105,126,102,50,97,142,117,117,33,0,0,0,50,142,142,142,142,142,142,0,142,142,142,0,124,142,0,142,125,125,68,0,0,0,0,0,13,14,114,126,143,142,114,84,130,0,114,142,142,84,126,0,0,142,140,142,38,102,16,113,38,143,142,143,143,117,54,45,7,142,143,143,107,38,102,125,115,23,38,24,142,125,142,47,142,117,115,38,50,0,143,125,0,0,124,0,0,143,142,111,114,142,117,0,39,142,117,102,126,125,0,0,0,0,0,0,0,0,0,0,0,0,0,0,0,0,0,0,0,0,0,0,0,0,0,0,0,0,0,0,0,0,0,0,0,0,0,0,0,0,0,0,0,0,0,0,0,0,0,0,0,0,0,0,0,0,0,0,0,0,0,0,0,0,0,0,0,0,0,0,0,0,0,0,0,0,0,0,0,0,0,0,0,0,0,0,0,0,0,0,0,0,0,0,0,0,0,0,0,0,0,0,0,0,0,0,0,0,0,0,0,0,0,0,0,0,0,0,0,0,0,0,0,0,0,0,0,0,0,0,0,0,0,0,0,0,0,0,0,0,0,0,0,0,0,0,0,0,0,0,0,0,0,0,0,0,0,0,0,0,0,0,0,0,0,0,0,0,0,0,0,0,0,0,0,0,0,0,0,0,0,0,0,0,0,0,0,0,0,0,0,0,0,0,0,0,0,0,0,0,0,0,0,0,0,0,0,0,0,0,0,0,0,0,0,0,0,0,0,0,0,0,0,0,0,0,0,0,0,0,0,0,0,0,0,0,0,0,0,0,0,0,0,0,0,0,0,0,0,0,0,0,0,0,0,0,0,0,0,0,0,0,0,0,0,0,0,0,0,0,0,0,0,0,0,0,0,0,0,0,0,0,0,0,0,0,0,0,0,0,0,0,0,0,0,0,0,0,0,0,0,0,0,0,0,0,0,0,0,0],"split_type":[0,0,0,0,0,0,0,0,0,0,0,0,0,0,0,0,0,0,0,0,0,0,0,0,0,0,0,0,0,0,0,0,0,0,0,0,0,0,0,0,0,0,0,0,0,0,0,0,0,0,0,0,0,0,0,0,0,0,0,0,0,0,0,0,0,0,0,0,0,0,0,0,0,0,0,0,0,0,0,0,0,0,0,0,0,0,0,0,0,0,0,0,0,0,0,0,0,0,0,0,0,0,0,0,0,0,0,0,0,0,0,0,0,0,0,0,0,0,0,0,0,0,0,0,0,0,0,0,0,0,0,0,0,0,0,0,0,0,0,0,0,0,0,0,0,0,0,0,0,0,0,0,0,0,0,0,0,0,0,0,0,0,0,0,0,0,0,0,0,0,0,0,0,0,0,0,0,0,0,0,0,0,0,0,0,0,0,0,0,0,0,0,0,0,0,0,0,0,0,0,0,0,0,0,0,0,0,0,0,0,0,0,0,0,0,0,0,0,0,0,0,0,0,0,0,0,0,0,0,0,0,0,0,0,0,0,0,0,0,0,0,0,0,0,0,0,0,0,0,0,0,0,0,0,0,0,0,0,0,0,0,0,0,0,0,0,0,0,0,0,0,0,0,0,0,0,0,0,0,0,0,0,0,0,0,0,0,0,0,0,0,0,0,0,0,0,0,0,0,0,0,0,0,0,0,0,0,0,0,0,0,0,0,0,0,0,0,0,0,0,0,0,0,0,0,0,0,0,0,0,0,0,0,0,0,0,0,0,0,0,0,0,0,0,0,0,0,0,0,0,0,0,0,0,0,0,0,0,0,0,0,0,0,0,0,0,0,0,0,0,0,0,0,0,0,0,0,0,0,0,0,0,0,0,0,0,0,0,0,0,0,0,0,0,0,0,0,0,0,0,0,0,0,0,0,0,0,0,0,0,0,0,0,0,0,0,0,0,0,0,0,0,0,0,0,0,0,0,0,0,0,0,0,0,0,0,0,0,0,0,0,0,0,0,0,0,0,0,0,0,0,0,0,0,0,0,0,0,0,0,0,0,0,0,0,0,0,0,0,0,0,0,0,0,0,0,0,0,0,0,0,0,0,0,0,0,0,0,0,0,0,0,0,0,0,0,0,0,0,0,0,0,0,0,0,0,0,0,0,0,0,0,0,0,0,0,0,0,0,0,0,0,0,0,0,0,0,0,0,0,0,0,0,0,0,0,0,0,0,0,0,0,0,0,0,0,0,0,0,0,0,0,0,0,0,0,0,0,0,0,0,0,0,0,0,0,0,0,0,0,0,0,0,0,0,0,0,0,0,0,0,0,0,0,0,0,0,0,0,0,0,0,0,0,0,0,0,0,0,0,0,0,0,0,0,0,0,0,0,0,0,0,0,0,0,0,0,0,0,0,0,0,0,0,0,0,0,0,0,0,0,0,0,0,0,0,0,0,0,0,0,0,0,0,0,0,0,0,0,0,0,0,0,0,0,0,0,0,0,0,0,0,0,0,0,0,0,0,0,0,0,0,0,0,0,0,0,0,0,0,0,0,0,0,0,0,0,0,0,0,0,0,0,0,0,0,0,0,0,0,0,0,0,0,0,0,0,0,0,0,0,0,0,0,0,0,0,0,0,0,0,0,0,0,0,0,0,0,0,0,0,0,0,0,0],"sum_hessian":[3.12728E5,1.75557E5,1.37171E5,8.111E4,9.4447E4,4.598E4,9.1191E4,4.3216E4,3.7894E4,8.4181E4,1.0266E4,3.8422E4,7.558E3,8.4968E4,6.223E3,4.0035E4,3.181E3,3.7865E4,2.9E1,8.3904E4,2.77E2,8.656E3,1.61E3,3.6384E4,2.038E3,2.515E3,5.043E3,2.9897E4,5.5071E4,2.754E3,3.469E3,1.938E3,3.8097E4,3.068E3,1.13E2,3.776E4,1.05E2,1.8E1,1.1E1,7.924E4,4.664E3,1.51E2,1.26E2,5.834E3,2.822E3,1.579E3,3.1E1,1.0321E4,2.6063E4,1.774E3,2.64E2,1.017E3,1.498E3,4.236E3,8.07E2,2.162E4,8.277E3,2.746E4,2.7611E4,2.456E3,2.98E2,1.306E3,2.163E3,1.758E3,1.8E2,3.785E4,2.47E2,6.7E2,2.398E3,9.8E1,1.5E1,2.8114E4,9.646E3,8.8E1,1.7E1,4.1875E4,3.7365E4,4.361E3,3.03E2,6.4E1,8.7E1,1.18E2,8E0,7.32E2,5.102E3,5.65E2,2.257E3,5.08E2,1.071E3,2.3E1,8E0,2.73E3,7.591E3,2.5143E4,9.2E2,9.3E1,1.681E3,1.77E2,8.7E1,7.33E2,2.84E2,5E1,1.448E3,4.098E3,1.38E2,7.33E2,7.4E1,1.5803E4,5.817E3,2.855E3,5.422E3,2.278E4,4.68E3,2.0886E4,6.725E3,2.426E3,3E1,2.09E2,8.9E1,1.291E3,1.5E1,5.24E2,1.639E3,1.663E3,9.5E1,3.1E1,1.49E2,3.5931E4,1.919E3,5.7E1,1.9E2,6.56E2,1.4E1,2.349E3,4.9E1,6.3E1,3.5E1,2.6201E4,1.913E3,4.038E3,5.608E3,7E1,1.8E1,3.1139E4,1.0736E4,3.4463E4,2.902E3,1.4E1,4.347E3,1.94E2,1.09E2,3.9E1,2.5E1,3.7E1,5E1,9.9E1,1.9E1,7.24E2,8E0,4.292E3,8.1E2,1.2E1,5.53E2,1.152E3,1.105E3,5E2,8E0,1.062E3,9E0,1.3E1,1E1,2.674E3,5.6E1,4.11E2,7.18E3,2.4393E4,7.5E2,8.27E2,9.3E1,2.3E1,7E1,1.155E3,5.26E2,7E1,1.07E2,7.3E1,1.4E1,7.03E2,3E1,1.48E2,1.36E2,2.7E1,2.3E1,1.194E3,2.54E2,3.106E3,9.92E2,5.9E1,7.9E1,6.41E2,9.2E1,2.9E1,4.5E1,7.123E3,8.68E3,3.752E3,2.065E3,2.026E3,8.29E2,3.996E3,1.426E3,1.4941E4,7.839E3,3.592E3,1.088E3,9.649E3,1.1237E4,2.193E3,4.532E3,1.45E2,2.281E3,1.1E1,1.9E1,1.24E2,8.5E1,1E1,7.9E1,1.259E3,3.2E1,4.98E2,2.6E1,8.78E2,7.61E2,1.619E3,4.4E1,1.1E1,8.4E1,2.1E1,1E1,1.7E1,1.32E2,3.5697E4,2.34E2,6.17E2,1.302E3,4.6E1,1.1E1,1.52E2,3.8E1,5.83E2,7.3E1,2.297E3,5.2E1,4E1,9E0,3.2E1,3.1E1,1.7E1,1.8E1,2.183E4,4.371E3,1.898E3,1.5E1,3.465E3,5.73E2,3.862E3,1.746E3,5.1E1,1.9E1,9E0,9E0,2.9136E4,2.003E3,6.966E3,3.77E3,1.8587E4,1.5876E4,1.362E3,1.54E3,4.31E2,3.916E3,9E1,1.04E2,1.2E1,9.7E1,9E0,3E1,2.9E1,8E0,4.2E1,8E0,8E0,1.1E1,6.33E2,9.1E1,2.01E3,2.282E3,7.8E2,3E1,3.59E2,1.94E2,2.5E2,9.02E2,6.26E2,4.79E2,4.92E2,8E0,9.8E2,8.2E1,2.455E3,2.19E2,3.4E1,2.2E1,3.98E2,1.3E1,1.128E3,6.052E3,1.065E4,1.3743E4,5.95E2,1.55E2,7.62E2,6.5E1,7.7E1,1.6E1,1E1,1.3E1,5.2E1,1.8E1,1.96E2,9.59E2,3.24E2,2.02E2,5.6E1,1.4E1,2.6E1,8.1E1,6.4E1,9E0,6.62E2,4.1E1,1.1E1,1.9E1,1.03E2,4.5E1,1.25E2,1.1E1,1.7E1,1E1,9E0,1.4E1,1.08E3,1.14E2,2.2E2,3.4E1,6.92E2,2.414E3,9.11E2,8.1E1,5E1,9E0,6.3E1,1.6E1,5.39E2,1.02E2,7.7E1,1.5E1,8E0,2.1E1,2.3E1,2.2E1,6.918E3,2.05E2,7.451E3,1.229E3,3.58E3,1.72E2,8.6E2,1.205E3,1.331E3,6.95E2,7.83E2,4.6E1,3.415E3,5.81E2,6.3E1,1.363E3,1.4287E4,6.54E2,5.679E3,2.16E3,1.614E3,1.978E3,4.22E2,6.66E2,8.042E3,1.607E3,5.776E3,5.461E3,2.094E3,9.9E1,2.372E3,2.16E3,1.27E2,1.8E1,4.9E2,1.791E3,9E0,1E1,1.13E2,1.1E1,1E1,7.5E1,5.8E1,2.1E1,1.242E3,1.7E1,2.4E1,8E0,4.52E2,4.6E1,7.71E2,1.07E2,7.19E2,4.2E1,1.533E3,8.6E1,3.1E1,1.3E1,4.9E1,3.5E1,1E1,1.1E1,8.6E1,4.6E1,3.2436E4,3.261E3,2.03E2,3.1E1,5.96E2,2.1E1,5.81E2,7.21E2,1.3E1,3.3E1,1.38E2,1.4E1,1.4E1,2.4E1,5.44E2,3.9E1,1.3E1,6E1,1.19E2,2.178E3,4E1,1.2E1,3E1,1E1,1.5E1,1.7E1,9E0,2.2E1,8E0,9E0,8E0,1E1,1.449E4,7.34E3,1.89E3,2.481E3,1.813E3,8.5E1,3.153E3,3.12E2,5.08E2,6.5E1,3.691E3,1.71E2,1.654E3,9.2E1,3.4E1,1.7E1,1.1E1,8E0,1.3148E4,1.5988E4,1.69E3,3.13E2,5.386E3,1.58E3,3.76E3,1E1,1.8358E4,2.29E2,1.5005E4,8.71E2,3.25E2,1.037E3,1.37E3,1.7E2,1.01E2,3.3E2,3.815E3,1.01E2,3.3E1,5.7E1,7.9E1,2.5E1,3E1,6.7E1,1.2E1,1.7E1,2.8E1,1.4E1,3.38E2,2.95E2,4.1E1,5E1,1.9E3,1.1E2,2.223E3,5.9E1,1.6E2,6.2E2,8E0,2.2E1,3.26E2,3.3E1,1.6E1,1.78E2,2.06E2,4.4E1,8.8E2,2.2E1,6.04E2,2.2E1,4.7E2,9E0,2.62E2,2.3E2,1.75E2,8.05E2,5.6E1,2.6E1,2.319E3,1.36E2,2.11E2,8E0,2.4E1,1E1,8E0,1.4E1,3.82E2,1.6E1,4E1,1.088E3,3.042E3,3.01E3,3.212E3,7.438E3,1.2877E4,8.66E2,5.37E2,5.8E1,1.46E2,9E0,7.23E2,3.9E1,5.3E1,1.2E1,4.9E1,2.8E1,3.9E1,1.3E1,9E0,9E0,1.83E2,1.3E1,5.24E2,4.35E2,9.2E1,2.32E2,1.78E2,2.4E1,1E1,4.6E1,1.2E1,1.4E1,4.7E1,3.4E1,5.3E1,1.1E1,3.79E2,2.83E2,1.3E1,2.8E1,1E1,9E0,1.5E1,8.8E1,1.6E1,2.9E1,1.17E2,8E0,8.67E2,2.13E2,1.06E2,8E0,1.05E2,1.15E2,2.2E1,1.2E1,5.65E2,1.27E2,2.9E1,2.385E3,2.62E2,6.49E2,6.2E1,1.9E1,3.4E1,1.6E1,8E0,5.5E1,8E0,8E0,1.1E1,5.28E2,9.2E1,1E1,5.7E1,2E1,9E0,1.2E1,1E1,1.3E1,9E0,1.3E1,6.409E3,5.09E2,3.6E1,1.69E2,7.054E3,3.97E2,1.17E3,5.9E1,3.03E3,5.5E2,1.54E2,1.8E1,4E1,8.2E2,1.195E3,1E1,5.48E2,7.83E2,5.91E2,1.04E2,7.69E2,1.4E1,3.7E1,9E0,2.176E3,1.239E3,2.95E2,2.86E2,5.5E1,8E0,1.209E3,1.54E2,1.4262E4,2.5E1,4.89E2,1.65E2,2.784E3,2.895E3,2.121E3,3.9E1,1.575E3,3.9E1,1.887E3,9.1E1,3.69E2,5.3E1,6.57E2,9E0,3.83E3,4.212E3,1.344E3,2.63E2,4.409E3,1.367E3,5.344E3,1.17E2,1.115E3,9.79E2,4.5E1,5.4E1,2.243E3,1.29E2,1.987E3,1.73E2,9.8E1,2.9E1,4.45E2,4.5E1,1.352E3,4.39E2,1.01E2,1.2E1,3.7E1,3.8E1,3.7E1,2.1E1,1.2E1,9E0,1.61E2,1.081E3,8E0,9E0,1.1E1,1.3E1,4.2E2,3.2E1,3.7E1,9E0,7.12E2,5.9E1,2.6E1,8.1E1,4.01E2,3.18E2,2.8E1,1.4E1],"tree_param":{"num_deleted":"0","num_feature":"144","num_nodes":"735","size_leaf_vector":"1"}},{"base_weights":[4.019311E-4,2.957723E-1,-3.7717977E-1,3.9301383E-1,-1.0475086E-1,-8.813289E-2,-4.7739977E-1,4.0217036E-1,-2.7137663E0,-7.303613E-2,-7.7008927E-1,-7.363763E-3,-4.0351015E-1,-2.9666382E-1,-6.473283E-1,5.1115125E-1,2.0242217E-1,7.020657E-1,-6.91928E0,-1.2344878E0,-5.4283842E-2,5.817497E-2,-1.3711306E0,-5.182108E-1,4.3912705E-2,-3.058222E-1,-5.9471714E-1,-3.378051E-1,4.0290225E-1,-7.0303786E-1,1.0404944E-2,6.2909746E-1,3.7960234E-1,3.1620649E-1,-9.184899E-2,8.712255E-1,4.7186893E-1,-7.0935864E0,-7.567242E-1,-6.585705E-1,-2.6958287E0,1.6830313E-1,-1.8548745E-1,4.845247E-1,-4.1199777E-2,-1.491581E0,-4.7394457E-1,-7.311366E-1,-1.5639363E-1,-8.4059825E-3,4.6622974E-1,-7.445171E-1,-2.7991349E-1,-1.0871687E0,-5.5378896E-1,-2.0336062E-1,-4.7660062E-1,5.3392446E-1,2.0499033E-1,-7.7182907E-1,-4.724504E-1,1.0553874E-1,-2.0498948E-1,6.7144626E-1,4.2656565E-1,2.999009E-1,6.169986E-1,3.3733913E-1,-1.9374368E0,-2.8240724E-2,-8.552675E-1,8.245889E-1,1.7644699E-1,6.065406E-1,3.4527758E-1,-7.6294203E0,-6.83507E0,-9.377298E-1,7.417282E-1,-3.495259E-1,-2.727432E0,2.660727E-1,-6.449976E-3,-1.7656362E-1,-1.5159984E0,6.5119576E-1,2.684696E-1,3.2207977E-2,-3.073827E-1,-1.5370821E0,1.2847501E-1,-7.359886E-1,4.8308575E-1,-7.00351E-1,-3.464217E0,-1.2794454E0,-7.807056E-2,-4.1395143E-2,4.4447434E-1,-4.771138E-1,4.7819653E-1,-6.618005E-1,-1.2904465E0,-3.8150662E-1,-1.5442204E-1,-1.1653697E0,9.6672475E-2,-3.022232E-1,-6.3420147E-1,-1.263449E-1,-5.0216323E-1,-4.5174384E-1,-8.6526704E-1,6.057581E-1,-1.5938534E-1,1.0085087E-1,4.5107985E-1,-6.4706665E-1,-8.54463E-1,-3.3382362E-1,-6.1070406E-1,3.4661192E-2,4.5578334E-1,-1.03078865E-1,-4.9967834E-1,6.848468E-1,2.445018E-1,4.4040906E-1,-3.044351E0,3.451655E-1,-2.4523377E-1,3.3842903E-1,6.484759E-1,3.5506138E-1,-1.7016467E0,-2.4662971E0,-7.564865E-1,1.9180357E-2,-8.0291355E-1,2.5712875E-1,-1.4918602E0,8.76696E-1,7.176322E-1,5.6801313E-1,1.06893316E-1,2.460371E-1,1.0171368E-1,-7.3922997E0,-1.2054164E0,-9.3619716E-1,-6.9295735E0,-1.738616E0,-1.10670716E-1,8.7614805E-1,-2.4162501E-2,-2.7081697E0,-4.171188E-1,2.812917E-1,-1.6295673E0,6.3411064E-2,-9.0537393E-1,-1.0946517E-1,-3.3377305E-1,-2.5640945E-3,-3.3519678E0,5.7286763E-1,1.5024869E-1,2.1992664E-1,7.0333995E-2,6.370402E-2,-6.6595435E-1,-1.3902874E-1,-2.5912106E-1,-1.5771041E0,7.431957E-2,8.803496E-2,-9.37811E-1,9.3654126E-2,4.036252E-2,-7.702286E-1,1.6812788E-1,-9.205317E-1,-9.035056E-2,-1.7103715E0,-3.7450072E-1,-3.782812E-2,-1.6639885E0,1.7958277E-1,-1.0880891E-1,5.379618E-1,-1.9152369E-1,5.221085E-1,-7.3991574E-2,-5.500384E-1,-1.1112784E0,-9.780497E-1,-3.0222994E-1,-4.156144E-1,-1.9395837E-1,-2.5438689E-2,-2.785073E-1,-1.0960779E0,-2.604589E-1,-3.8386333E-1,9.976575E-2,-6.5951985E-1,1.7063051E-1,-1.7827709E-1,1.9695684E-1,-4.312101E-1,-7.476648E-1,-3.741443E-1,-5.714394E-1,-3.4348087E0,-6.1831343E-1,6.315628E-1,-2.4579884E-1,-9.486564E-1,6.6104114E-1,-1.7164749E-1,1.8426874E-1,6.107251E-1,3.5513538E-1,-5.214105E-1,-7.476707E-1,-7.5294155E-1,-9.8816895E-1,-2.2778994E-1,-4.5972037E-1,-4.5416695E-1,-7.1349555E-1,5.8627672E-2,-7.8806883E-1,6.905366E-1,3.0806443E-1,-7.343806E-2,-1.391748E0,-1.2364297E0,-4.3787035E-1,-1.851347E-1,6.916987E-1,8.73772E-1,-1.10429406E-1,4.509313E-1,-1.8401519E0,-2.1690588E0,-5.798712E-1,2.7361834E-1,5.888048E-1,1.857527E-1,-1.8282332E0,4.6612406E-1,1.8204138E-1,6.1572486E-1,8.616987E-1,3.9178205E-1,-3.5809457E-1,-2.3313482E0,-5.6356245E-1,1.6809861E-1,-2.6136537E0,-5.350454E-1,-4.4782364E-1,-2.513872E-2,6.85381E-1,-3.807671E-1,-2.1409032E0,-1.03889056E-1,2.8276813E-1,-1.1845857E0,-4.904801E0,8.604899E-1,1.4860255E-1,9.269399E-2,1.109507E-1,9.667298E-2,4.8339882E-1,1.9155234E-1,6.6702E-2,-6.9990525E0,-7.6829605E0,-1.0592034E0,-6.8503623E0,-1.9451381E0,1.490068E-1,9.529634E-2,-3.3055446E-1,1.14549264E-1,1.4443767E-1,-2.7147193E0,-3.8223016E-1,4.5363706E-1,1.440673E-1,2.4464537E-1,-3.3280723E0,1.081565E-1,-1.2603655E0,-8.136845E-1,-4.3669933E-1,-1.06635444E-1,-4.6358165E-1,-2.3164572E-1,-4.160814E-1,5.44003E-2,-6.894233E-2,-3.4293752E0,-4.3146423E-1,7.0339507E-1,3.5927725E-1,3.0053055E-1,4.044048E-3,2.535294E-1,-3.1208662E-2,-1.8988125E-1,-2.299203E-2,-1.9599234E-1,-4.896781E-1,-1.673239E-1,-1.622642E0,-1.6022824E0,-6.3215417E-1,-7.4629885E-1,-2.3550332E0,5.664438E-1,3.3864096E-2,-1.1591297E0,-3.9431956E-1,-3.8147387E-3,-1.05467126E-1,1.8638031E-1,-2.5541222E-1,-5.8766496E-1,4.46212E-2,5.197359E-1,1.2047473E-1,4.699174E-3,-2.3937775E-1,6.103009E-1,1.1567766E-1,-1.7068246E-1,-1.1708719E-1,6.001338E-1,2.8670824E-1,-1.687008E-1,-1.3252592E-2,-5.7754624E-1,-1.001643E-2,-9.457581E-1,-1.2386017E0,-1.1082924E-1,-1.721207E-1,-4.0261334E-1,-1.0393617E0,-1.4716871E-1,-4.5614177E-1,-8.283694E-2,1.6480267E-1,-1.4289357E-1,-4.1228485E-1,-1.0432701E0,-2.900477E-1,-4.0770075E-1,7.180795E-2,-1.4561963E-1,3.7939095E-1,-5.925596E-1,-8.612132E-1,-1.5016437E-1,4.5630535E-1,-2.3128913E-1,9.772605E-2,2.6973468E-1,3.966849E-2,-3.3319998E-1,-5.2756953E-1,-7.102832E-1,-2.4802208E0,-3.090869E-1,-5.269043E-1,-5.6349397E-1,-1.9121469E0,-1.3920854E-1,-4.943638E0,-2.89988E-1,-7.335091E-1,6.8789953E-1,4.1613558E-1,-3.3712798E-1,-7.3088147E-3,6.9559836E-1,-1.583281E0,9.1946656E-1,4.4043407E-1,6.3666224E-2,-1.8616278E0,2.2744954E-1,-5.193242E-1,8.336372E-1,5.0988394E-1,-3.7889466E-2,3.8365817E-1,-4.5433632E-1,-7.0439863E-1,-1.1595002E0,-7.17876E-1,-7.731421E-1,-2.5563487E-1,-9.278147E-1,-1.1713179E0,-2.6067588E-1,2.2807713E-1,-4.1740933E-1,-6.278054E-1,-4.8486182E-1,-2.0443896E-2,-7.400654E-1,-2.997654E-1,9.084618E-2,-4.9726942E-1,-7.4871495E-2,-8.307274E-1,8.2352924E-1,4.9548078E-1,-1.5509318E-1,3.7149376E-1,-8.662165E-3,-3.6279628E-1,-2.1826935E-1,-1.827827E-1,-6.1302826E-2,-3.3197668E-1,-3.6126298E-1,-1.0976821E0,2.0693848E-2,-2.9146692E-1,1.0265991E-1,4.3382686E-2,1.1768359E-1,1.5421347E-1,-3.596442E-2,1.3083883E-1,6.6478744E-2,-4.4738817E-1,-5.7927144E-1,7.68344E-2,-2.2504544E-1,-3.977421E-1,5.5660356E-2,1.9846043E-2,1.0512548E-1,6.6173054E-2,-1.4561751E-1,3.082514E-2,-1.5569602E-1,-7.8064466E-1,7.402841E-2,-1.0661942E-2,-3.5236496E-1,3.599429E-2,9.5853634E-2,6.3581616E-2,1.26755E-1,-6.656915E-3,8.0924325E-2,4.211084E-2,6.5319605E-2,-1.9353762E-1,-3.829651E-1,8.5603826E-2,-4.7433857E-2,-5.214726E-1,-4.0690884E-1,-3.020957E-2,-4.180664E-2,-4.6784186E-1,-1.4140784E-2,5.884708E-2,1.0686745E-1,-2.225134E-2,-4.8517272E-2,-2.0037453E-1,-1.21110395E-1,-4.1805848E-1,7.071338E-2,2.4319323E-2,4.754627E-2,-2.7574906E-1,1.6663257E-2,-1.1550015E0,1.19453356E-1,1.2853111E-1,6.632683E-2,7.431199E-2,1.9042665E-2,5.3551383E-2,-1.0404696E0,-9.994912E-1,-1.1460574E0,-1.0979738E0,-9.9949133E-1,-9.9949133E-1,-3.2033342E-1,-1.2854502E-1,6.1716805E-3,8.252894E-2,-1.2723036E-1,-1.0308384E-2,-3.9757174E-1,-3.95066E-1,6.972684E-2,-1.0558943E-1,2.8081564E-2,-1.3871788E-2,1.1548139E-1,-3.877307E-2,-5.238679E-1,-4.5579547E-1,2.3745066E-2,-1.677055E-1,6.885626E-4,-2.9925427E-1,-1.4386956E-1,1.7966582E-2,-1.3664643E-2,-7.6468594E-2,-2.3472568E-2,-5.0252665E-2,-5.8358673E-2,-2.0612559E-1,3.0604063E-2,-2.0982612E-2,-4.921173E-1,-5.44649E-1,1.2092385E-1,9.228648E-2,5.7576746E-2,4.947294E-2,3.1665586E-2,6.599907E-2,4.8098523E-2,1.2066174E-2,9.575855E-3,-1.8059405E-2,-4.170033E-2,4.1649956E-3,-1.5574268E-1,-2.648734E-2,6.113376E-2,-6.718658E-2,-2.3109126E-1,-4.6463132E-1,-4.3441944E-2,-3.561377E-1,7.5301625E-2,-1.7853941E-1,-9.964313E-2,-1.9868071E-1,-4.8888642E-1,-8.936913E-2,6.104193E-2,1.1089768E-1,3.8093977E-2,-6.7285486E-2,-7.3143765E-3,-2.5002432E-1,-4.4554982E-2,5.363929E-2,-2.8790204E-2,-1.9829644E-1,9.715428E-2,4.9144752E-2,2.7616E-3,5.0976627E-2,-1.0040686E-2,4.0613603E-2,-4.8458166E-2,-1.2634746E-2,1.0470716E-2,9.337018E-2,7.880705E-2,-1.7017391E-1,-2.4705634E-2,1.3112622E-1,7.472434E-2,1.02092706E-1,3.7522502E-2,1.02461286E-1,-1.003863E-2,1.03431806E-1,-8.875644E-2,-2.83079E-2,-1.5692236E-1,-1.0958983E-1,-1.6754156E-1,-1.9608663E-1,-4.2479638E-2,-6.495159E-2,-8.9592054E-2,-4.2313427E-1,-2.5754355E-2,2.078235E-3,-4.813816E-2,-1.668093E-1,-6.726038E-3,-7.9375274E-2,-7.607146E-2,2.766941E-2,-1.3524073E-2,-7.189189E-2,-5.3193465E-2,-2.7809826E-1,-1.4375302E-1,-2.1942821E-1,-6.673746E-2,7.643128E-3,-3.998769E-2,1.4031315E-2,8.182132E-2,4.2577326E-2,-8.443823E-2,-2.0967048E-1,-1.2107252E-1,-3.3080056E-1,1.1046901E-1,8.05318E-3,-2.7558599E-2,-6.220939E-2,2.3224106E-2,-1.7353497E-2,5.088787E-2,2.5933105E-2,1.4319856E-2,-3.3240765E-2,-3.701344E-2,-6.183789E-2,-7.107081E-2,-1.1800154E-1,-1.01839215E-1,-3.142737E-1,-9.723885E-2,-5.0301075E-1,-4.063978E-2,-1.1280953E-1,-7.457688E-2,-1.23193316E-1,-7.220612E-2,-1.040864E-1,-1.296201E-1,-9.594461E-1,-8.798812E-3,-6.348172E-2,-8.2952136E-1,-3.8037667E-1,-2.189914E-2,-7.3638916E-2,-4.4415665E-1,-1.0075778E-1,1.0239103E-1,1.6103122E-2,6.364101E-2,-4.6427343E-2,-5.5433135E-2,-4.1021585E-2,7.538785E-2,1.2324213E-1,-1.7812986E-2,-3.0041784E-1,1.2267628E-1,1.673092E-1,1.0893813E-1,-1.3179807E-2,1.9173658E-2,-1.543549E-1,-9.393153E-2,-4.1968983E-1,3.890957E-2,-5.169163E-2,-2.2954758E-1,1.9423736E-2,1.3586913E-1,9.424856E-2,8.172618E-2,4.3231227E-2,6.876855E-2,2.8087357E-2,-7.108631E-2,-1.7989028E-2,-1.0708802E-1,-1.917464E-2,-1.293717E-1,-5.1162106E-1,-9.4832696E-2,-1.2439886E-1,-1.0346078E-1,-1.3113627E-1,-5.5472884E-2,2.2553755E-2,-1.331408E-1,-2.4840127E-1,-1.7488053E-1,-5.9712622E-2,-4.2030584E-2,2.915796E-2,9.385485E-2,3.4338462E-3,-5.887678E-2,-1.3360545E-1,-9.991696E-2,-6.9116265E-2,-6.756522E-2,-1.6541255E-1,-2.0891127E-1,1.0545312E-2,-1.10609174E-1,-3.214786E-2,-5.5709645E-2,3.109346E-2,4.127139E-3,4.258347E-2,-8.154699E-2,4.436441E-2,-1.6027088E-1,-1.1306745E-1,1.0385088E-1,1.3325307E-1,9.633659E-2,6.170655E-3,7.605799E-2,1.4643244E-2,1.7766306E-2,-1.7813865E-2,-6.359289E-2,1.0580651E-2,-4.2210218E-2,-1.6963342E-1,-9.6966706E-2,-1.9024552E-1],"categories":[],"categories_nodes":[],"categories_segments":[],"categories_sizes":[],"default_left":[0,0,0,0,0,0,0,0,0,0,0,0,0,0,0,0,0,0,0,0,0,0,0,0,0,0,0,0,0,0,0,0,0,0,0,0,0,0,0,0,0,0,0,0,0,0,0,0,0,0,0,0,0,0,0,0,0,0,0,0,0,0,0,0,0,0,0,0,0,0,0,0,0,0,0,0,0,0,0,0,0,0,0,0,0,0,0,0,0,0,0,0,0,0,0,0,0,0,0,0,0,0,0,0,0,0,0,0,0,0,0,0,0,0,0,0,0,0,0,0,0,0,0,0,0,0,0,0,0,0,0,0,0,0,0,0,0,0,0,0,0,0,0,0,0,0,0,0,0,0,0,0,0,0,0,0,0,0,0,0,0,0,0,0,0,0,0,0,0,0,0,0,0,0,0,0,0,0,0,0,0,0,0,0,0,0,0,0,0,0,0,0,0,0,0,0,0,0,0,0,0,0,0,0,0,0,0,0,0,0,0,0,0,0,0,0,0,0,0,0,0,0,0,0,0,0,0,0,0,0,0,0,0,0,0,0,0,0,0,0,0,0,0,0,0,0,0,0,0,0,0,0,0,0,0,0,0,0,0,0,0,0,0,0,0,0,0,0,0,0,0,0,0,0,0,0,0,0,0,0,0,0,0,0,0,0,0,0,0,0,0,0,0,0,0,0,0,0,0,0,0,0,0,0,0,0,0,0,0,0,0,0,0,0,0,0,0,0,0,0,0,0,0,0,0,0,0,0,0,0,0,0,0,0,0,0,0,0,0,0,0,0,0,0,0,0,0,0,0,0,0,0,0,0,0,0,0,0,0,0,0,0,0,0,0,0,0,0,0,0,0,0,0,0,0,0,0,0,0,0,0,0,0,0,0,0,0,0,0,0,0,0,0,0,0,0,0,0,0,0,0,0,0,0,0,0,0,0,0,0,0,0,0,0,0,0,0,0,0,0,0,0,0,0,0,0,0,0,0,0,0,0,0,0,0,0,0,0,0,0,0,0,0,0,0,0,0,0,0,0,0,0,0,0,0,0,0,0,0,0,0,0,0,0,0,0,0,0,0,0,0,0,0,0,0,0,0,0,0,0,0,0,0,0,0,0,0,0,0,0,0,0,0,0,0,0,0,0,0,0,0,0,0,0,0,0,0,0,0,0,0,0,0,0,0,0,0,0,0,0,0,0,0,0,0,0,0,0,0,0,0,0,0,0,0,0,0,0,0,0,0,0,0,0,0,0,0,0,0,0,0,0,0,0,0,0,0,0,0,0,0,0,0,0,0,0,0,0,0,0,0,0,0,0,0,0,0,0,0,0,0,0,0,0,0,0,0,0,0,0,0,0,0,0,0,0,0,0,0,0,0,0,0,0,0,0,0,0,0,0,0,0,0,0,0,0,0,0,0,0,0,0,0,0,0,0,0,0,0,0,0,0,0,0,0,0,0,0,0,0,0,0,0,0,0,0,0,0,0,0,0,0,0,0,0,0,0,0,0,0,0,0,0,0,0,0,0,0,0,0,0,0,0,0,0,0,0,0,0,0,0,0,0,0,0,0,0,0,0,0,0,0,0,0,0,0,0,0,0,0,0,0,0,0,0,0,0,0,0,0,0,0,0,0,0,0,0,0,0,0,0,0,0,0,0,0,0,0,0,0,0,0,0,0,0,0,0],"id":2,"left_children":[1,3,5,7,9,11,13,15,17,19,21,23,25,27,29,31,33,35,37,39,41,43,45,47,49,51,53,55,57,59,61,63,65,67,69,71,73,75,-1,77,79,81,83,85,87,89,91,93,95,97,99,101,103,105,107,109,111,113,115,117,119,121,123,125,127,129,131,133,135,137,139,141,-1,143,145,147,149,151,153,-1,155,157,159,161,163,165,167,169,171,173,-1,175,177,179,181,183,185,187,189,-1,191,193,195,197,199,201,-1,203,205,207,209,211,213,215,217,219,221,223,225,227,229,231,233,235,237,239,241,243,245,247,249,251,253,255,257,259,261,263,265,267,269,271,273,275,-1,277,-1,279,-1,-1,281,283,285,287,-1,289,-1,291,293,295,297,299,301,303,305,307,-1,309,-1,311,313,-1,315,317,-1,-1,319,-1,-1,321,323,-1,-1,325,327,329,331,333,335,337,339,341,343,345,347,349,-1,351,353,355,357,359,-1,361,363,365,367,369,371,373,375,377,379,381,383,385,387,389,391,393,395,397,399,401,403,405,407,409,411,413,415,417,419,421,423,425,427,429,431,433,435,437,439,441,443,445,-1,447,449,451,453,455,457,459,461,463,465,467,469,-1,471,473,-1,475,477,479,481,-1,483,485,487,489,-1,-1,-1,-1,491,493,-1,495,497,-1,499,501,-1,503,505,-1,-1,507,-1,509,511,513,515,517,519,521,-1,523,-1,525,527,529,-1,531,-1,533,535,537,-1,539,541,-1,-1,543,545,547,549,551,553,555,557,559,561,563,-1,-1,-1,565,567,-1,-1,569,571,573,575,577,579,-1,581,583,585,-1,587,589,-1,591,593,-1,-1,595,597,599,601,603,605,607,609,611,-1,613,-1,615,617,619,621,-1,623,625,627,629,631,633,635,637,639,641,643,645,647,649,651,653,655,657,659,661,-1,663,665,667,669,671,673,675,677,679,681,-1,683,685,687,689,691,693,695,697,699,701,703,705,707,709,711,713,715,717,719,-1,721,723,725,-1,727,729,731,-1,-1,-1,-1,733,735,-1,-1,-1,-1,-1,-1,-1,-1,-1,-1,-1,-1,-1,-1,-1,-1,-1,-1,-1,-1,-1,-1,-1,-1,-1,-1,-1,-1,-1,-1,-1,-1,-1,-1,-1,-1,-1,-1,-1,-1,-1,-1,-1,-1,-1,-1,-1,-1,-1,-1,-1,-1,-1,-1,-1,-1,-1,-1,-1,-1,-1,-1,-1,-1,-1,-1,-1,-1,-1,-1,-1,-1,-1,-1,-1,-1,-1,-1,-1,-1,-1,-1,-1,-1,-1,-1,-1,-1,-1,-1,-1,-1,-1,-1,-1,-1,-1,-1,-1,-1,-1,-1,-1,-1,-1,-1,-1,-1,-1,-1,-1,-1,-1,-1,-1,-1,-1,-1,-1,-1,-1,-1,-1,-1,-1,-1,-1,-1,-1,-1,-1,-1,-1,-1,-1,-1,-1,-1,-1,-1,-1,-1,-1,-1,-1,-1,-1,-1,-1,-1,-1,-1,-1,-1,-1,-1,-1,-1,-1,-1,-1,-1,-1,-1,-1,-1,-1,-1,-1,-1,-1,-1,-1,-1,-1,-1,-1,-1,-1,-1,-1,-1,-1,-1,-1,-1,-1,-1,-1,-1,-1,-1,-1,-1,-1,-1,-1,-1,-1,-1,-1,-1,-1,-1,-1,-1,-1,-1,-1,